-0.07121180866803616,-0.058219407181340554,0.031420459792662184,0.004026989983381746,-0.029630876585732782,-0.06708297098154199,0.016967099653068224,0.07322166312888384,-0.08193345734116907,0.0726742673194872,-0.06300534631551916,-0.06091624442009492,0.06814806780527882,-0.013282621955727353,0.035254163304985736,-0.06810582743177679,-0.05968961469964253,-0.07246795481555787,-0.0633318428513843,0.047022331423402924,0.07115890094656802,0.004623959290358887,0.03730098101178303,0.02391990009417483,0.02415348781594953,-0.05995119834068027,-0.05086090250052639,0.021168720939175406,-0.009234642989070396,-0.046504754040373776,0.043638817732573554,0.021540591571819687,-0.06128638448494294,-0.006748136298841954,-8.088465998644411E-4,0.007564964732497042,-0.03466606981270061,0.04169340438937056,0.03106960315105435,0.03643661222433518,-0.07134964932170101,0.05508978793876476,-0.08461676256255407,0.042436769023599344,0.05107838134365243,0.06562553377258165,-0.07269452947338441,0.03588668581107749,0.01834322349803968,0.017914103357760298,0.03628410993108113,0.07735016146894415,-0.02501777577706194,-0.0437550527830487,-0.06674046897199455,-0.013604776333478494,0.06784215272940203,-0.0438864186498651,-0.0754611501640914,0.007339435779820838,0.016937077446326936,-0.013892181248152025,-0.07621956294338246,-0.03044425244764493,0.05290831952416151,-0.020228976075001882,-0.09565357950846314,-0.04670226168179628,0.05432899473790531,0.0721927715094763,0.07865755000742909,-0.010087120102456862,-0.08955838606526052,0.013528146123964383,-0.056883605185027164,0.04111738453810703,-0.032257312724658316,-0.034687011843894645,-0.011789989932078129,-0.030578537184280052,-0.01227979168078381,-0.06559276411351157,0.008013688120429421,-0.07929927960156893,-0.022426799112610446,-0.008560928608203941,0.06673947973562415,-0.0019752273817281144,0.03356580193502232,-0.05939610983699508,-0.08016869711986369,-0.08605002772124966,0.044203723421542086,0.1043770134671929,0.05160484517066637,-0.20757762067053867,0.004791929463958778,0.17172552668958554,0.04252562469466217,0.18789274013467797,-0.017325836500687884,-0.17034319812554313,0.22972688610458777,0.5044470515704844,0.18601278596107826,0.15112038619777737,-0.05556509713255272,-0.053616784895317425,-0.026115907582123208,0.010332069940748983,-0.03931533333884761,0.04092366938920616,0.001073606519890552,-0.06821087264177886,-0.011031358735898344,0.032410098276260346,-0.023348721413884378,-0.10345837137050139,-0.026982048386302204,-0.12967279834491993,-0.22498023220510727,-0.06635736180043636,-0.1956065974145746,-0.3840819218547457,-0.47916143817517043,-0.5062845667206809,-0.017818037627038173,0.26802439790771687,0.5145504645910993,0.21636413145830247,0.5112688149646005,0.5526573398188943,0.27954355674496056,0.4325003371051054,0.4513076635163939,0.4549817868391334,0.24760857635508193,-0.02245842725103778,-0.019769737482299224,-0.07060345113115056,0.034160301092810874,-0.0822682413573284,0.04790258850859135,0.022889536000172878,-0.15507831112322704,-0.12711577887091066,-0.07685436033304108,-0.3199420150480729,0.002298665698014804,0.06021423813954574,0.19267592966277478,0.18535767082390192,-0.26718873605652294,-0.42338155783029685,-0.16032640034060444,-0.4093053176959519,0.2084226733832578,0.47834495466617144,0.5020025285796644,0.3635683994863777,0.1734900093353393,0.22210075126074563,0.32455929664828526,0.4932860375731344,0.2546001854524215,0.07601863523932609,0.0787681456302712,0.07795670197225024,0.03444155694036165,-0.06652697619717682,-2.4775564494442334E-4,-0.0317903341725072,0.003997559112911307,-0.05671045031293316,-0.3969391355163022,0.019677364639747324,-0.1969909255489895,-0.1970964176305925,0.5703855315830435,0.1835221530434699,-0.2168157846744144,-0.2352451408540971,0.20874646922652454,-0.3212031282652237,-0.4060680409097311,-0.21002978175970702,-0.1294077729409669,0.43778888354419426,0.29691720581141573,0.344207665294118,0.31972877785189924,0.16728961212068494,0.20476034502464407,0.13459383311779707,-0.016157012298536444,-0.08550347315062631,-0.05687457241122088,-0.06559727994821267,-0.06610628125855143,-0.06334078068885379,-0.11970152364881206,-0.21459320576078866,-0.27879477725169904,-0.09970994745155312,-0.25626247462713225,0.233023822502462,0.2864705122929042,0.06094405451955195,0.11903198174589891,-0.33409578668717066,0.18846171073741197,0.18111361553002192,0.4919400093005098,0.6027164387887048,0.6770380372464723,0.6943330675056908,0.7429946978352429,0.2919088164263745,0.16665215242651715,0.34593146018248566,0.3105728405958571,0.2256901074931725,0.02917344760184832,0.007488690471134747,-0.005323118051556533,0.007966027864040435,-0.0411232653462272,-0.019527690363279088,-0.3216776898717066,-0.230911279740529,-0.2291492880942666,0.10265452879855677,0.13961949978831745,0.10339505958672997,0.04509051955736361,0.19281535293554583,0.5136254365091905,-0.13066011911634562,-0.04354863431256226,0.03244620590523695,0.1677772366020077,0.060379039571060104,0.20046813807985794,0.0930619005214369,-0.059518265035517416,-0.22738273215315344,0.13325315641040655,0.40090569740746135,0.42448538198380664,0.0623980255875048,-0.0040540924074029625,0.06992019567958409,0.057954413085817336,0.029328349856237997,-0.02699611905578589,0.018421011750698584,-0.31171472134623823,-0.143998094248803,0.039737313967140045,0.6466334849957937,0.6137053190191998,0.5894899389031832,0.43003671763229173,0.6334824406345673,0.6878168827107609,-0.34804516329174723,-0.815322932256264,-0.39512243244806594,-0.6509197143413442,-1.1110825265189923,-0.9106598615336146,-0.9877340049800302,-1.3076070042527739,-0.8993851209743989,-0.4459636803436236,0.15484362471539528,0.2898435627702742,0.21262718917012938,0.013078211804164854,0.057760834380415474,-0.015496315156491096,-0.024763717095149945,-0.03239807530829347,-0.031045915468806737,-0.20354405181094365,-0.012977165079946939,0.33131899347540184,0.3602445582017432,0.416769563609977,0.5490113298610851,0.4192209226245797,0.5620361169524697,0.49661371461537274,-0.31445395107337787,-0.9863649313910122,-0.753312564632348,-0.9755271414533718,-0.8606119528528128,-0.9046860456077491,-1.0920479355603696,-1.1319576898969705,-1.0305626402755097,-0.7454472671449418,-0.18735694526513283,0.031560353819676236,0.1394996974727306,-0.03674923735457294,0.05912228511263345,0.0503338044848249,-0.05317808376275626,-0.052862159783942854,-0.05801836749645693,-0.1826806801792255,-0.06649734765844699,0.15625401263607658,-0.2479330445262473,-0.11716976060022434,0.3728643166751623,0.289892342687421,0.033865942594818454,-0.2753859429346383,-0.6144371912739445,-0.7583868204802666,-0.49400278399631803,-0.1769786232303752,-0.15623666089813865,-0.11487278361487745,-0.3879892210122795,-0.5978948685098638,-0.8826530077680792,-0.7126423214976514,-0.29452141721906444,-0.06103688753637729,0.0031813497729784586,0.01942051910317975,-0.011848704870216626,-0.01004230055771187,-0.06156438672172188,0.04525064605542024,0.039782264198134215,-0.13078113008957742,-0.10712601654931914,0.2432869613701231,-0.18508569186770255,0.47324151158685696,0.2173391390360102,0.22212107134697617,0.15016043506204038,-0.13974640066839622,-0.4606005017557303,-0.7440889342415842,-0.39605771282604335,-0.2981613667479152,-0.4898268365228663,-0.057867172329441004,-0.25815491690135317,-0.16898539656949715,-0.45218443815663706,-0.2966180065911951,-0.2692834101504563,-0.12288367222901679,-0.04566419381015673,-0.07124665236524251,0.05314328362940032,-0.05218076886272241,0.06375571981258678,-0.06621056705860831,0.021871815915310348,-0.09386861206564404,0.13585563513962506,0.3755022677834539,0.376159599278002,0.12857386401071733,0.08756953653993106,0.14254547243132312,0.1322744382578622,0.15368358373373808,0.06203985022280847,-0.09363606897892607,-0.08803483445851752,-0.41752154025252564,-0.12537700755424785,-0.8616847221754012,-0.2811373147327179,-0.3859102679415258,-0.29359260340350446,-0.24987224804798963,-0.09893682241229164,0.047097790715716445,-0.08569119915627284,0.05700324778421108,0.02669573037606312,-0.07945181650846135,-0.018222932219197154,-0.00264413571082989,-0.07189509845171788,-0.09271084866458733,0.21377681181089067,0.3724026856966974,-0.0170973279870262,0.15436013192482867,-0.015434238805717593,0.03235294739910261,-0.49312239017869985,-0.35399867387662787,-0.369293701790546,-0.1453707433626489,-0.11002345170585646,-0.5539759765295548,-0.7253025925368757,-0.423494553036432,-0.38570649361324105,-0.35820235536710493,-0.6408665238683754,-0.24677187398193537,0.041933616993319704,0.02620722070107076,0.019649582158389828,-0.004450095723619033,0.07396275363698687,0.014321192647023003,-0.011816747963497427,0.022166900231391753,0.02188326373299043,-0.09706345464004736,0.09418023349383366,0.11380280356714745,-0.16817476764372724,-0.172025067837905,0.03935313253414733,-9.255528156398818E-4,-0.4279640051374377,-0.304362866219165,-0.795550448076959,-0.590738328676169,-0.3500416539837489,-0.2684993515927502,-0.5771686088048643,-0.5000268550067194,-0.18099603116108742,0.11929961098678556,-0.2435521613432783,-0.5296614133571673,0.08496091073329173,0.0768130162215999,-0.1431876818550255,0.07257625911948595,-0.047665941770030196,-0.036640714368564246,-0.002271858393530971,-0.06254929038429291,0.09853067407234717,-0.019295134999704,0.0323081693822702,-0.19928441196571092,-0.3165967748315118,-0.2576293248680512,-0.7126247236940199,-0.23228736684007892,-0.03582860798368294,-0.5672231242646771,-0.8445815580068773,-0.06481291105232799,0.18730131773295242,-0.20063396737144015,-0.6957529929071727,-0.6353906261869284,0.0659884492798799,0.027177328389532008,0.016334686173397575,-0.18127468535713823,-0.047888666021491444,0.029209238804512084,-0.10991843536577915,-0.055597966825329734,-0.01529650569385136,-0.0861869836739354,-0.07230943692174908,-0.010495080441221218,0.022472580657137524,-0.06487629160748752,-0.0698001629499135,-0.06739031355265226,-0.2754733722340704,-0.37794456085536926,-0.5961164293274533,-0.08514422991617417,-0.15686235414379582,-0.7324531214258398,-1.0258323522867456,-0.22360636944917978,0.34127277551053337,-0.17537050630633275,-0.5503468889703266,-0.29033148000691206,0.2672355413112604,0.05108851340331167,0.042636311228397825,-0.02759504484174837,-0.07216938619256427,0.03709729646711163,-0.05148707452805252,-0.05016155907954644,0.03083336402536111,-0.023828844919186114,-0.06955584391060982,0.05048677278274001,-0.12427800903040083,0.04669478919880195,-0.2524351013686847,-0.37381437433107795,-0.02542046959890391,-0.3942968324856161,-0.4147537556479438,-0.3491053297689788,-0.6656267968118785,-0.7794313067602792,-0.8761186789426165,-0.680044692901635,-0.32432130686480926,-0.06907391996142039,0.12293057727493108,0.08600004989152467,0.47764154709874795,0.5102944273164615,0.32683691384109287,-0.22673389275447842,-0.09112847009349063,-0.06599193274795875,0.03869693280334663,-0.02432387922457942,0.06042635327120446,0.05406172523385581,-0.0709016000422483,0.05163068363348,0.014668486027017825,0.11736556270574866,-0.2856528990257579,-0.27263532568646753,-0.12641941032128085,-0.3439399673700876,-0.5731679030811249,-0.4508622663940562,-0.3979070264454291,-0.6616630137183864,-0.5764251174410452,-0.2898086963657075,0.16669642274865737,0.4021058655530883,0.7443922489123534,0.4716067617339705,0.18171977697412245,0.506744040938822,0.35776972021914527,0.13032831693203767,-0.13374082056417097,-0.0099784488489838,-0.034185885055807226,-0.09760877379893448,-0.08553935179511948,-0.04543711735671165,-0.015514399276764524,-0.04089243162288373,0.042524766127903,0.22620248062784706,0.10312201758220975,-0.17320012396849635,-0.32366546369163157,-0.1138162720331545,-0.1645734065391476,0.10368891667567191,0.3971229167586135,-0.013595601896491874,-0.15561825888980083,-0.15765797762882025,0.13777047320803007,0.6096073523368315,0.7371055932324382,0.42811664435220437,0.12821063644102143,0.35924595269948567,0.385405848095793,0.3122197394217558,-0.00712290587225396,0.04089366937410481,0.021959288817265967,-0.024746634267925095,0.02108037513864264,0.06365532119134651,0.03677929916302304,-0.046512965719451634,-0.10458977049576952,0.17322029064824615,0.6116448435933585,0.38586042022419287,0.013024220109604356,0.1469271578794011,0.07800562961727367,0.5910232932435194,0.4354597136339289,0.3994780602145713,0.2277011234075906,0.5932296025935171,0.42809261222530937,-0.011923834660405794,0.3261718381535894,0.764500941246596,0.15778090217687554,0.694835532088804,0.8157179530129753,0.12313574461041668,0.1317566278539131,0.15702551165892023,0.08073077613901518,-0.06538089759959012,0.04583500916464092,0.04876355159889553,-0.06082306097956081,-0.0443892128064027,-0.08747631212192093,0.20588686044137416,0.3893389378474504,0.2909405601970939,-0.2583061673383733,0.16136167354804778,0.31990989850967183,0.22749841325622283,0.5343329596545711,0.02588644808249547,-0.1946573977749709,-0.016633963074090242,-0.19878766378885887,-0.15917949969246606,0.4650610386381985,0.06438512912902913,0.162968741539844,0.26548543291712334,0.4155528037091574,0.0017415914010886924,0.18056710658903818,0.09613590905585366,0.046915314083299575,0.02868740463561116,-0.08273730995160601,0.00714602140081716,0.05939728225076857,0.03537474936133666,-0.08902528004770312,-0.031127941545878363,0.1528230821325756,0.37756878093083646,0.07617098422042609,-0.272112545433978,-0.24946402518799143,0.10690340649584044,0.39165777820072006,0.2566230584603012,0.018201406965079266,0.06386681383586998,-0.26833092709296025,-0.03457850649579433,-0.11835369777163286,-0.3487478742858026,-0.5326900401676758,0.020878759386293893,-0.002682415485613692,0.011399679098516783,0.08065344207845099,0.02369704858239409,-0.05764043474048212,0.0057545171330016095,-0.029257008743417058,-7.154298814300297E-4,0.04291817118153779,0.0680057228612707,-0.025698746361100058,-0.01837499716522618,-0.03357526905933666,0.030292213810128095,0.43022451442729903,0.37772845314772835,0.21479245679600828,0.24163419772647998,0.08413453941623346,0.11618992970260196,0.15591389193557417,0.10216635810831699,0.21231294180922397,0.00923210454570114,0.016304995203717757,0.027471522734430796,-0.011318523782283794,0.24196536745700717,0.14368998469387617,0.07690122016567041,0.057488980879287166,0.06479211378545516,0.020377214745914154,-0.026673408318383357,-0.021216490311995392,0.06906093553051373,-0.04775685099864976,-0.028625219210552104,-0.04296451395324794,-0.05244145625591806,-0.00434033912272008,-0.06883575344346608,-0.026734390678742066,0.0015873959772110546,0.14507284970112175,-0.23711862102015302,-0.1480486144797053,0.20206588311300927,0.2594832569511996,0.3508095644387251,0.13724796632190273,0.05418302706492913,0.18020793562702092,0.1172561199882445,0.23140714901466716,0.05416403439663626,0.12037254143381573,0.051060184878805794,-3.824973583881823E-4,0.10128104128045541,0.07535085716429481,0.011254976730817027,-0.025203863387005143,0.012537738744167859,-0.06938844855567318,0.060831136144758546,0.03161663258134667,0.0011488694769894224,-0.05548858281321017,-0.06519466675284917,-0.0020399859883727172,0.024064630651836567,-0.07416722980852342,-0.11211485435125973,-0.03258769528380763,0.08115288922301223,0.005545081123374826,-0.12424576661390145,-0.13914373299674035,0.05524629753025046,-0.1663944430022144,0.06567814688938002,0.09046392550526983,-0.055228439439312,0.06359054063370635,0.039860785947014137,0.025600031513888347,4.636967160072442E-4,0.02912763105451757,0.0753141343162303,0.03731226497695883,0.0494004875603517,-0.04799248361801296,-0.04596506754950359,-0.06379853821641276,-0.031884652578210805,-0.05656005837353601,0.030764020298566147,-0.06619038073375721,0.017270446021508224,-0.07256221894477476,-0.07066475003979111,0.04632076464268347,-0.08200682009397803,0.007220141579235656,0.019574843832481544,0.06691903955029121,0.05018116717799476,-0.08725407692485579,0.03717331581400478,-0.06667411091553577,-0.03948106280493296,0.09849663357508995,-0.06393146136923572,-0.0026169225806437855,0.011265623848208561,-0.003971010911955536,0.05503383882944407,-0.06132706733004034
-0.0820809797389517,0.057456127970018644,-0.043258050845609915,0.04780094104872129,-0.06601132826171388,0.02044092473526178,0.048714017599014586,0.07646124027622767,-0.023216737695998357,0.02659067590658036,-0.0431810934213983,-0.00410726059585978,-0.0361958057596189,-0.0246152510304541,0.06708637889744068,0.05148069731608052,-0.030105643772070437,0.05476768412999872,0.024527772739462134,-0.05996119590529979,-0.017703185442876135,-0.025371188361088926,-0.02563620568964045,-0.07813816805877498,0.052389151084618446,0.0192763965618781,-0.04647962496637122,0.07870819538574048,0.05518576621361157,-0.04738183215283327,-0.07075556554954791,-0.01851634400005049,-0.006292140699091857,0.08657741509840614,0.07932921522804377,-0.08167438745316243,0.037841845185885736,-0.06817410617591319,0.011741036096719787,0.030564065952798064,-0.003997445075187546,-0.05596039925604527,0.011573015576161066,-0.03487395055708484,0.027031630199244927,0.0056747542075827745,0.026554689744701467,0.05860577865882502,0.03893676926558922,-0.04527769197117714,-2.89216462359568E-4,0.04566189616003302,-0.06305820569523629,-0.03776665996847958,0.05121854652479424,-0.01562576373448421,-0.07463547466786329,0.0066266102180951025,0.07900888535338642,-0.046355909366417404,-0.020311273887850437,0.03280777346327594,-0.010237100267800052,0.08449555255148021,-0.006085725377296823,-0.0057402088871116985,-0.009212335431881822,0.0299567373531588,-0.03848347879337316,-0.12938639814763792,-0.040245773406596824,-0.1291617445411578,-0.009038717744283916,-0.024111255725631078,0.1297903546931342,0.0015184716606671965,0.10138967139357345,0.09317058019865225,-0.025386588009345963,-0.07045214723633668,0.011745188410226304,-0.00327930373619202,0.0665489818124434,0.028538351748541302,-0.00860674565019176,-0.015163453735595855,0.03432541990792521,0.030181988901929285,0.06134169208926958,-0.06264503886650176,-0.05907275285948304,0.038678528283262945,0.03944507817986425,0.18735279958049766,0.24630526729678462,0.1535815491695568,0.16363417756476475,0.31466438488318854,0.49189999057606215,0.7324553014146838,0.1980427608872909,0.17368979896228445,0.16579912782489614,0.13162914777902543,0.0923035952126518,0.015241747785554706,-0.03189583129927098,-0.04388133417375536,-0.015571964802638324,0.06638305316072864,-0.04875382955337746,-0.08361076534888301,0.08687553352711477,0.044117978019203176,-0.07221667022929981,0.005800792070818756,0.059785722935785504,-0.06139139969960653,0.002540891067750272,0.16506530628063845,0.14376268990556637,0.22833090523660937,0.11048285542535072,0.4149030298114735,0.44484253953008646,0.05760290387860951,0.5661369638814823,1.226913240580679,0.31788444646626324,0.054489091783257344,0.17764983438607468,0.3409795306279062,0.12439339427698301,0.33943330874745686,-0.04370050425827045,-0.09305249539444098,0.18744502328693188,0.12016403160911014,0.014224931341997522,-0.020229483772194773,0.01839241713875424,0.01944937543038333,-0.06937994062809721,-0.029131166245617082,-0.059812479664479286,0.09247992758433998,0.2992211796287864,0.3154466461197331,0.4516336207877186,0.6942222574650098,0.5299941230136177,0.9690089979446896,1.0571251102243189,0.24374006169523188,1.418574364457629,-0.022109566765469508,-0.42525821785250845,1.0771447483916536,0.2861107024713646,0.8415149353504173,0.5628510396576092,0.27882343185787206,0.1481877447049554,0.03187281919923868,0.04184563462832727,0.18770091738871367,0.01743968034615206,0.06613345310633441,-0.04457269249973809,-0.0011492421461551509,0.03922296216004422,0.006852845869818169,0.04230954719778296,0.3255765040093296,0.7347126300590788,0.7634043018656096,0.8724151169672403,1.1431375438343472,0.6533714963280084,0.6125948292600613,0.17946736254176698,0.3645486616529208,0.45056234091396186,0.5955193710624418,0.09333882669794416,0.9668191374387297,0.5257194188383817,0.7005537283758273,0.03783633373193943,0.33170297127377,0.07619988770030392,0.29234298505242473,0.19520688504743752,0.3231786986160321,0.08940286481623146,0.02159773027898171,0.013870332441236753,-0.015271224924361724,0.0631314646102485,0.009196262312720725,0.15803395268628784,0.38888539964150887,0.7967398357600862,0.8894781675619778,0.9470498871908515,1.033609118661192,0.752250030730078,-0.02396521098364126,-0.22147980125642394,0.5569690562678553,-0.3046549374554412,0.7075530053975765,0.13557626363061193,0.05001448030858719,0.577587918156216,-0.048055007266837625,-0.38653078786973005,0.2842443662317396,0.051251874651576865,0.14832890596290565,0.08051723533326947,0.06247128410350281,0.05635626891513542,-0.05136035608225677,-0.02185102433099102,0.02027536466580407,0.08019042281325128,0.07871631632440523,0.16992609624382532,0.40816144541434796,0.8534577715907771,1.064181902684333,0.8764284144316278,0.7903311817887329,0.2260085993757576,0.13725227243674035,0.8614384368763731,1.2624823816730308,0.7758117539996353,0.9249626779780323,0.4512000397501523,-0.2170756956326196,0.8937142621322615,-0.029475303128975477,0.02120515119555221,0.10238697761395238,-0.07078236052317663,0.03697863655040271,0.007439757449107652,0.017265126333418927,-0.04648888819873993,0.04641262529852236,-0.0544382553413894,-0.016733280829490983,0.02529027387579103,0.08007769537405972,0.17884314920620192,0.2599826802702268,0.6893711974371481,0.5888297197458826,0.42835854892127645,0.3284079533886517,-0.2648831005021168,0.16299473086028662,0.10043693388142585,0.5719507768983558,0.41297039731771346,-0.1805618959987944,-0.2042551509912123,0.5360301404248651,0.11819147112903955,-0.49338141149587983,-0.4827398622090669,0.36231760142126285,-0.34467084512662843,0.35220819901787664,0.13889708845239876,-0.037801433132629535,0.11577740834542262,0.055274889163924375,-0.054826341432388265,-0.018757350352208716,0.09546278375262901,-0.05322608437709127,0.018376945886451924,-0.03171877683468869,0.32457984431439457,-0.217779711903801,0.49618987308320744,0.38365877341022825,0.231150503553274,-0.012151309552695168,-0.5120169271193639,-0.46457242739405347,-0.8324552880826226,-1.1147026074098079,0.18219536770779843,0.3859138514514916,0.5636951903080385,-0.7808528850600563,-0.20292150390833463,0.4102833769361127,-0.09129399501358104,0.09198428238435964,0.039183883636436455,0.13009090755409425,0.1698536517935841,-0.052521325572661065,-0.024744383986876922,-0.03521387756746788,0.09068243951997296,0.041074519106570194,0.10749090400210765,-0.026419131145722394,-0.2009705315259146,-0.4593841988220029,0.17292045510263884,0.10406996759741746,-0.061501126358755966,-0.8011333890729105,-0.30809834345774667,-1.033988612528581,-0.6866195379744509,-0.8253539316307774,-0.6836121359787336,-0.0208695137972888,0.12287837395897079,-0.34596930909801865,0.24290918464852396,-0.19189125849924082,-0.5156211251912352,-0.04285160482705385,0.33237798896376564,0.22541196309899164,0.060849633652839664,-0.06763954903234515,-0.05701795836124839,-0.07591396638086625,-0.052408989660789954,-0.06103665543403023,-0.2074941156781725,-0.3751190997702454,-0.6924758690081689,-0.5802504438813965,-0.28760397672271637,-0.3738656818549441,-0.8654555947611453,-0.582194188677014,-0.521930466806315,-0.4516104396202205,-0.4533816408796274,0.0096099848379997,-0.3496530049902259,0.5559330236050757,0.16258148417952425,0.15832444173036955,0.14351137889256516,-0.1268691470404278,-0.6200800257885916,-0.2675280248705509,0.14308610612361372,0.14775978143033247,0.011808877823934303,-0.0636311921679062,0.026435142183178807,0.045798548758860934,0.07444603279166552,-0.11532654273960484,-0.2471721169624933,-0.39734814408331726,-0.7990352258554168,-1.033971188185752,-0.3670347431693156,-0.19567575002425167,-0.8238437105775592,-0.23642251335263578,-0.3278672609277155,-0.3725281075812686,-0.44326116279357786,-0.04057882171642767,-0.3471590131874857,-0.280724477719172,0.0894160753266891,0.10523174884026346,-0.1705124372394435,-0.4822711380176843,-0.40307504189895293,-0.4502210900165724,-0.2254630810732058,0.05146927571190601,-0.0367095488882012,0.051907360722923415,-0.0825561493654942,-0.07931155687393904,-0.06985036288456425,-0.25084867090087826,-0.3452913955980366,-0.646339589739889,-1.067346542370587,-0.820183558026196,-0.7891176389928513,-0.7615454911803553,-0.6788793621079011,-0.025374368091633882,-0.5348607222299901,-0.4154389618310578,-0.02744714205989202,0.13365981601704227,-0.6757976387353144,-0.42116491419458446,-0.0345756647846872,-0.35324669983989077,-0.4478119516833969,-0.39806588874905807,-0.49106351404170717,-0.18904621844262826,-0.1544805201434853,0.04617212263818344,-0.0016999521199594855,0.047643761719359565,-0.014332683849251493,-0.05988155647920038,0.04970402032111979,-0.1708539488020508,-0.4172118281240241,-0.9103403443165545,-1.1762754855614364,-0.8036230041708025,-0.855535708455369,-0.9950050219542885,-0.7296100186322114,-0.41337123207693366,-0.7088598369093395,-0.6795129560576516,0.6839102523731865,0.0073971532267803255,-0.7542671668105726,-0.3654054971599417,0.4463166268668117,-0.35265070680254695,-0.289866751652707,-0.0847313848563878,-0.1337469677689286,-0.08558368489364095,-0.1772212095361211,0.037950554096948974,0.05444671999698153,-0.08296014669316794,0.06790664327917033,0.014967825182350384,0.05838419456800707,-0.18639528969563174,-0.2767467784279413,-0.7769831301394284,-1.0995649503520526,-1.1373216721062067,-0.5925216795392504,-0.38841692454392657,-0.19661026599707065,-0.5649538477502143,-0.10661629730990482,-0.17734595400566813,0.024066179143913367,-0.1804643458506922,-0.597796894291879,-0.17058580691129763,0.06679407358352435,-0.12263379192764429,0.23688288715724137,0.08094247565647374,-0.20301101743509095,1.930854410723007E-4,-0.12286023442928246,-0.013602715400514982,-0.028011062819732462,-0.03677698745227131,0.002803057125718808,0.05740713336284399,-0.07566146568654107,-0.13228759734429477,-0.1573321509008207,-0.5379379339438426,-0.5822390160785815,-0.9158230220846296,-0.49414115472329617,0.4494127928655319,-0.2302891661873265,0.18296300205687469,0.07990810605402651,-0.005364281077672117,-0.6409415584092544,-0.4604965674716936,-0.25537904266319894,-0.1454301742863743,-0.45618339457678875,-0.1949618232675492,0.5192179205396075,0.0792248215188549,-0.23438508189690957,0.24913694328480301,0.2815455439750456,0.05105280455180831,-0.012112564529470727,-0.07865603430862816,0.03492584297373634,-0.035576615746313815,0.06685237230663436,0.06866389702980666,-8.45755436154501E-5,-0.05286989759370141,-0.11553473727563636,-0.40005138671220514,0.13099213780907007,0.07642617038082204,-0.591759470151246,-0.18109383943227764,-0.6093399754211334,-0.40053358514315396,-0.996549131981317,-1.3998760870032738,-0.22844852517894856,-0.3177815754080674,-0.08833527941368963,-0.17893023730765534,-0.004036922567009011,-0.14301888009500777,0.2381246635381162,0.47786162876212973,0.24051700858217515,0.012623210445180803,0.0013566666611225199,-0.16424869277349058,0.07265255720832263,0.014578361130930115,0.05005915539090877,0.025891523556822164,0.204290453305558,0.3105760786380976,0.3605132036370124,0.09113278027809675,0.4763337627219169,-0.5506626646003777,-0.518515050321065,-0.927379683065088,-1.1721531525604592,-0.556313520497334,-0.684000114004992,-0.6727394127617984,0.08833875811749012,0.14636877314375618,0.4244161375224225,-0.3151578002434294,-0.20208800642991953,0.08662429448461753,0.3824400233019085,0.23157324268781207,0.2799620846738983,-0.08475297069114851,0.028943682161195437,-0.10251409963044138,0.014585668656952933,-0.02222740216606837,0.013703693409810518,0.1492424373134935,0.17907990780435715,0.531608032358127,0.7550944787825937,0.18350996656982815,-0.002888111776470736,-0.2627159415661498,-0.10249088802836348,-0.4481396320486376,-0.05763528282540014,0.14977142315455258,-0.6097961693299859,0.16504956257919018,-0.05621289779918557,0.24542393244260127,0.31181770621622423,-0.33631961464236837,-0.028245650640707755,0.37410541651772544,0.4270292862019344,0.24047004750818857,0.12176844778153449,-0.05160832972529829,0.002447574653823023,-0.05654628858257405,0.0011397151778608614,0.0029675929507964063,0.038342595155407645,0.04314509727811299,0.059958835682308996,0.42588549379778984,0.8291534228646991,0.27550671749535943,0.5723893173798451,0.6146560718090105,0.2197196455414272,0.4448622151881304,0.34633716785899865,0.7736512949074866,0.8139123636385407,0.9544916584920367,0.5593644816332173,1.0608786050262244,0.08430088068495806,0.07927965193365506,0.13977520997151696,0.3655537829959891,0.34797360147295336,0.18592935823239126,0.06773121314693599,-0.08756622279278238,-0.09072693539706499,0.02945322336926106,-0.04133174757981521,0.013064970512806013,0.02295112507355803,0.06107769273937533,-0.025272783219227532,0.03553985128971534,0.5403504758792159,0.5422342874334425,0.7371021392099218,1.1611412858247805,1.1026195267059185,1.7906913757389584,1.0721414812195174,0.7390038207266354,1.0317729502250401,0.7192626471282602,-0.2881187267603197,0.6310127413865785,0.09665919993460637,0.2031413784780669,0.008551759732104949,0.1576280849292705,0.2281626769830514,0.14019678274808517,0.06948332247926688,0.04034001520402367,0.005834844546140289,0.08257088479073102,0.07620058941621005,0.02036990023742738,-0.0535560106536437,0.03452403230062104,-0.06188516811607121,-0.04809035326788806,0.04976362118168695,0.3656315677060811,0.044311199620298655,0.19055070584476225,0.4782769007305687,0.9556743446186846,0.3954413027745544,0.42007673844741367,0.6335661568573122,0.35862693773839693,0.6212986906072765,0.11691090707965633,-0.1409601187088298,0.03910204016170818,-0.09243943119799085,0.07460841147464187,0.07328354591803875,-0.07189519506049385,-0.10038840502089726,-0.1325292758250144,1.0924322481188972E-4,0.0828649644794903,-0.06892837987033437,0.020215340168008952,-0.05790877593411562,0.009166250673362072,-0.016170924023907712,-0.019902166192624582,0.22678239517925203,0.18571584760049725,0.11979498498439338,0.009745864216482783,-0.10782264715147366,0.3547196675261563,0.8666654572526734,0.6711060293299691,0.34545774411503427,0.7494344221859585,0.41956931765629035,-0.23407094261622163,0.0042108068843032176,-0.014877564691638558,-0.07432812638570829,-0.18213952137205122,-0.0619061299348509,-0.036788175163988766,0.05672116952810801,7.085879588561565E-4,0.011240823599995821,0.050954708667841936,-0.016907457691591604,-0.04776577658779281,0.08347248704132774,0.017014662728830995,-0.1550470341254036,-0.0451833297964178,0.09101866618452725,0.225121536567462,0.1571266007658398,0.19741323464477512,0.5497773462863211,0.47641422422554724,0.3492091075527629,-0.3434497153076523,-0.671333553830323,0.17120251414444124,0.3260615990028175,0.15606395577324256,0.21066777538432604,0.08989616719404371,-0.09655329480384064,-0.19106331415451988,-0.062889217177904,0.004007537283386479,8.02140360705959E-5,-0.06102183333262387,-0.013948585692406337,-0.017159179214857143,0.07471436184302438,-0.05431550539462664,0.008337289707668338,-0.06827090934731149,-0.08101162123607732,-0.0646113565873577,0.05958772361950416,-0.011534788339389184,0.05310749717275994,0.07602098978507799,0.07156524947636414,0.19891573218359074,0.17220184089034776,0.08907321914633362,-0.04863759300186258,-0.05021706515461235,0.08496704532930723,-0.07180177610202304,-0.03748023676670294,0.08900368244764793,-0.00863675095801067,-0.02906823009744323,-0.06624376154202441,0.016482650869733044,-0.05976222777185782,0.03329782268789892,0.04823817884222231,-0.07275093856526581,0.019004145871960906,-0.07421131779048805,-0.014497792378262278,0.07896299995287259,0.01151144669500117,0.046290170700836825,-0.04485141171845209,0.0792784323752665,-0.05288704225572063,-0.04380902626418586,0.025329669152119347,-0.06670572581769259,0.025933546804789907,-0.030812959160587423,-0.017695450977531252,0.053317685584104026,0.011891372515112787,0.07082256509966163,-0.033729315978710525,-0.024208101379555192,0.07082332978613369,-0.009146205131970649,0.02115450822776552,-0.014903766051242757,0.011244934371502743,0.04902511182491601,-0.06519829894588965,-0.04822886639592602
0.08650134713899635,-0.016494296519318913,0.029466628307667816,-0.02327067576792141,0.03774879031449781,-0.01637448414980862,-0.009053203182527392,-0.05299250100586554,-0.045683206018428624,0.06853612666127931,0.023454186054843618,0.009991895291981495,0.07493352651893626,0.07797826405867639,0.05215303926616253,0.07980001686229175,0.07420739197418041,-0.07006895250550152,0.0672100990776554,0.08147104302276093,0.04615394202201917,0.007084559409710076,-0.05492570764931504,-0.07910154178848901,-0.0343549000314071,-0.05964318167835944,0.06109497803434935,-0.0656165844986562,-0.022037519974109188,0.019184039024226357,-0.008260089404177245,-0.046867493436429486,0.010494512117304493,-0.032463264311367576,-0.018600390073756457,-0.06256696968905066,-0.07328698596156945,-0.06999227635738042,-0.07083412471614882,0.0024632379013639063,-0.08440195356862104,-0.08600810485058362,-0.008720538940769764,0.03211484194118366,-0.010489466445770118,-0.06380711444323085,0.07126423568872686,-0.08398356410699126,0.04718915660732026,0.07191787382124816,0.06531178508358955,0.03197790773997751,0.010250384668932438,0.009332141458188933,-0.0854855488639879,0.08418056395910956,0.02709651746051489,0.009360201561344969,-0.012548589517737924,0.06429070498824312,-0.023492470687222374,0.00440358599842845,-0.08608432497978365,0.08423250165129303,0.042322144968469644,-0.06851894536214066,0.08455923803099469,0.019020976465491377,0.11685059551701789,0.06405703769750438,0.21183174188989437,-0.015007733200353273,0.04485065758698289,0.03202253109899847,-0.08648453710318559,0.009094872713419458,-0.054294311377410226,-0.03106810078147973,0.06863713447075596,-0.060430487228727306,-0.0122949640839372,0.021722017019591755,-0.001096951739922844,-0.028685066250440705,0.011991732196868166,0.037592842098131185,-0.04705440940052166,0.07378360344117729,0.04389695695455583,0.06229537641530969,0.05619649257547334,0.026553172316719324,0.038262059066928464,0.006637869346694838,0.16621574065495048,0.09818734748259328,0.15224422969912998,-0.10833076676720753,-0.14019627889016695,-0.2504561504927208,0.08904065661692465,-0.047732298377899614,-0.20308861090717328,-0.25621055129191495,-0.09554250992930412,-0.07372718364552812,-0.07226161869153855,0.008117737687416101,0.007453670244656365,0.015140392165592154,-0.10103700629793366,0.01827117839563412,0.012392458637506543,-0.02799293913689625,-0.0022153334028995665,0.04845367375618141,0.05454613735834735,-0.032803828676490294,-0.01021473850884916,0.005389231526692004,0.012974637355195655,-0.05186660634191341,0.10224878588924424,0.08310640396790725,0.34762795392659435,0.38717600184503986,0.04517700566843523,-0.44826618922921635,-0.26828750487694086,0.014629770314658253,0.2744766750463068,0.2292816352289181,0.15182857217760737,-0.21147481395414006,-0.12368658952575219,-0.050723939971239126,-0.1434852989165256,-0.060384540148300754,-0.018019094916419526,-0.015442301210205091,-0.017779518412289044,-0.06985291819854549,-0.05586380077993809,0.07446063483044674,-0.02289596090051238,0.039359305119404824,0.1753978470623436,-0.0031882308874308877,-0.3431071963476373,-0.6469999154222327,-0.052210501244687554,0.39199823706481474,-0.2718019397130073,0.33387810976370147,-0.2364297704348129,0.10071994388235203,0.04364961733934315,-0.19763446095539938,0.10519815599494657,0.01752425780294071,-0.1104719576962128,0.1646470289505854,0.11266629293124854,-0.025567220397550293,-0.1505608977582755,-0.05823047876424342,-0.009227807779815026,0.006689770368261135,0.01637438257391516,-0.07458680108947703,-0.07888111106186713,-0.019087918127331155,-0.12858241901174733,-0.27310601683663804,-0.40637164187417013,-0.13830325169740065,-0.0858794826826227,-0.22213657075978316,-0.08755688393968017,-0.013291512340418199,0.0123925395583621,0.12368665584111496,0.3059303997947348,0.17358915572922695,0.09322511606128253,-0.21182162819386596,0.031591234065809715,-0.5055659305433429,-0.12448753247223027,-0.38769309238724814,-0.33148578621410424,-0.08978384372537986,6.630880186225275E-4,0.06321589456795804,-0.044845839875906804,0.07123552028517943,-0.054396800307768,0.0720198062221614,0.0025695041290873795,-0.11871005401636966,-0.21644339525422748,-0.5387595466580444,-0.6550575876027512,-0.4306696106842879,0.42710150624916543,0.14355893341530557,-0.4565089034064068,-0.5808387760740529,-0.1376896428825674,-0.18266979194357635,0.42715443891300076,0.4913176937294578,0.39324206242629056,-0.6877619686313956,-0.6858458205791323,-0.171013036727307,-0.40252495212765155,-0.5710793016519088,-0.42253125881119913,-0.1097242278374439,-0.0036401796837810907,0.051457796035812006,-0.09729340048078561,-0.05860904764162291,0.018767814295831697,-0.006268952081000499,-0.04108704661058397,-0.13960184185644559,-0.3026983261387209,-0.47742011873853946,-0.3507805408697591,-0.3678896329344895,-0.03206735708758835,-0.15884370185559865,-0.04876444554588274,-0.2374289698252871,-0.1996623368752963,0.3252431050035197,0.507597847996218,0.11487126749133274,-0.1012375485520948,-0.15815928281838387,-0.7384761822243737,-0.18130956138605878,-0.7334377238552126,-0.706710079705032,-0.32507804037267984,-0.28315447130305327,-0.12495690528657954,-0.03351508890208001,0.1187634811173133,-0.018873809121107917,-0.054417423589988474,0.011118136774168933,0.045159731993307695,-0.06335063272313536,-0.20828273206242898,-0.20206301209862695,-0.14333834344500718,0.21295774020297822,-0.009732831435583057,0.19884245805432724,0.5120043761427835,0.3637350069331246,-0.3090383327885126,-0.18135084590020867,0.13325273539313984,0.05738633212422961,-0.11314648063814038,-0.210581237171003,-0.15722241608569937,-0.15691044528057238,-0.5161009990211922,-0.6332111579003756,0.008891151713958764,0.04241366296684274,-0.02233196366442589,0.07678841316251217,-0.022577985545444053,-0.010894153994687461,0.07823733058855845,-0.08323672223416174,-0.06025838596238561,-0.062426211997546756,-0.14897747202117212,0.010341796270721649,-0.01771462535480078,0.40394936101172957,0.4188325375545593,0.4638142946989853,0.8980219498545247,0.39147013793395835,0.5486872543072838,-0.12007940693208621,0.08786802569774159,0.02549856393552341,-0.29171044975234084,0.1752097496919568,0.18564988383216074,0.19564019206145775,-0.848264868131416,-0.526420421168258,-0.2954968380220794,-0.2450089235608705,-0.18947230060148973,-0.03816372544310589,0.09321164009974964,-0.017076883320399625,-0.07324312370635787,-0.029002975327281043,0.004589664489052731,-0.08894038711190576,-0.18631768959777265,-0.029910374758393823,-0.01152368552980212,0.084203203650341,0.020719600380839424,0.11155054055203369,0.16826628926935658,-0.40852946007388785,0.3940195997496959,0.5910394491307007,0.08735128605087604,0.1220034335972016,0.6193839440761687,0.9040342641428353,0.6830934863710112,-0.3483482525577054,-1.1677979336042659,-0.8270274543432815,-0.5524013597161463,-0.39590289018159797,-0.1931545905949533,-0.1560267153209176,-0.07105845844717253,0.004595318639755014,-0.04377186926572873,-0.07600520622347283,-0.031324322929782725,0.016035782534231657,-0.04990402078858164,0.03673230473488582,0.07585578614078436,-0.12538150154169345,0.01749105726872413,0.2582767150812089,-0.9412232058698843,-0.4744094198272379,0.47298655230588404,0.5865693470048539,0.6422931980581055,0.6931034994748028,0.8455787014129771,1.5264784631588855,0.7583568826886746,-0.7112574246873508,-1.740513192043788,-1.1441151376041514,-0.6883365975864892,-0.47394945521579573,-0.18994043301734234,-0.0613336258637958,0.03242294270044238,0.08194386911178891,-0.060344816407790325,0.045582080565695404,-0.09712349268475227,0.005005876721392926,-0.06045868979467642,-0.1374201093412552,-0.1960338165573341,-0.1916428547275986,0.10717679898639836,-0.15421431188402046,-0.564101761152159,0.11514950671055356,0.43214896893313126,0.4222693826751095,0.5039853391629697,0.6014151241005017,0.8566877070518611,0.8290908857903588,-0.05692347304446965,-1.3883029673280185,-1.4080663467962333,-0.8334014435562086,-0.6769683167682446,-0.2792146339886095,-0.1039813384751245,0.04053426141456451,-0.02274003177236236,0.07248042253232125,0.043264931849881595,-0.07828064825493741,0.0281189914779383,-0.05501837222005839,-0.15896308486108465,-0.17182721615322208,-0.09911940778683344,-0.18022188895503108,-0.252299786039824,-0.4362350933404645,-0.2641899245347318,-0.2222783861753432,-0.028651474179250788,-0.17700407103266066,0.2910958272224494,0.15026116306772888,0.4899747984908918,-0.07296593485306604,-0.06804772523452596,-1.5814913152128889,-1.1136020127900903,-0.46139441581658097,-0.22721009286631047,-0.17956678307970386,-0.04480840069989201,0.002882847275130662,0.02697066970752901,-0.043011241219443976,-0.018460556732040792,0.052572751644831474,0.04090139043525957,-0.04826457071975652,-0.09004668377372212,-0.295757258208374,-0.17646034175345307,-0.23053911188017998,0.061707128279979956,-0.3200849976659022,-0.1164366913807467,-0.1615310507927528,-0.4855032468071628,-0.19408321114250296,-0.3486493703726242,0.10098673637030214,0.3487545903525938,-0.3526658092741501,-0.619627120766252,-1.187942628464524,-0.9102647613267374,-0.31766009937662293,-0.007489417340158751,-0.19795434544829515,0.0730799954042768,0.23353200555242073,0.0743399622866712,-0.0052739666504142335,0.0057850257813785505,0.030414420333687492,0.03322565592001393,-0.10281743629525765,-0.01626539210666661,-0.23797929055695252,-0.034188299940993754,0.1537037755475859,0.265274507961777,-0.32906607420486417,-0.19480330824832895,0.2659749445635366,-0.20592416801866786,0.29875229826991473,0.6328487136009247,-0.2996073241203597,0.0827786552842913,-0.9855943005664449,-0.945638614575136,-1.1015094659432496,-0.5144351150692389,0.03317691958196019,0.06424656086344833,0.10827895191983662,0.22154579960229104,0.35295848226032134,-2.095817336161115E-5,0.015467846215481236,0.07146189878621062,0.056452054566353625,-0.02438666136972348,-0.06451985844955474,0.04636194026782912,0.10906557820884223,0.1959134361163184,0.3052582691915782,-0.08666095103137685,-0.08520423203521622,-0.06803832028003497,0.022773817962971833,0.12241032018527612,0.28003282247565214,0.6430377716960265,-0.3595615919371237,-0.7042155382831758,-0.9157806400039846,-1.0037547224288303,-0.9988187449238323,-0.4308226142820556,-0.26998405574251355,-0.1127113072996899,-0.025595911146175255,0.06366871540190651,0.3478556714277145,0.08579191744418972,0.06347712628231242,-0.07675561191200883,0.03911555800520253,-0.09454413165123059,-0.07962868437647687,-0.02892919009669401,-0.09655512909074018,0.18670968228052268,0.31480295708755757,0.4402715180813215,0.2397528078592033,0.11627041363865816,0.2848431038764362,-0.7600928951261462,-0.28616244510396155,-0.3256664515407906,-0.6942292112206201,-0.8491665262943883,-0.5381497330904313,-1.0152103207560517,-0.4143238007116873,-0.08782952453333837,0.1284353621040451,0.47728887403579584,0.04775081662867938,0.22146643339447036,0.38286426664456047,0.03286606792271749,0.10144545900498192,-0.013358790262453376,-0.00791736604959907,0.04646678441033396,0.07263912727023403,0.029635975595567084,-0.059637049417734095,0.3257912112114334,0.3020186115224189,0.2908735705867691,0.002382071239224302,0.20568121743814685,0.015873062816745387,-0.7949839843177433,0.3137424945604604,-0.19123313494443506,-0.2870339129461606,0.36015466410320124,0.21329892225499106,-0.06881130176359669,-0.03851425535111174,-0.009685617564945426,0.040317949241066645,0.2746717915008379,0.26454306818459394,0.37228733464082525,0.15968588202785708,0.11776525796717272,0.028733056316387468,-0.06911137741424836,-0.08478463961810126,-0.05385362180428101,0.08559179485663465,0.08511768894089529,-0.2756490523509322,0.11271221629866172,0.4061466047740363,0.29776696354869603,0.06958155756533725,0.2770202043100358,0.05031363113181419,-0.18352418637014956,-0.0565379598199581,0.12414350874840989,-0.12429888785870698,0.41585187820798697,0.2194796827992509,0.03189085480035359,-0.31810415636315564,0.0747098415521376,-0.03479609870655524,0.15516527879712055,0.3259588188419632,0.23909008494953185,0.03918926942245772,0.04311542654100481,0.07569103688981854,0.05548310247687886,0.014985578415637973,0.014633081132302907,0.12274126929043583,0.21653051478875174,0.019748224984223562,-0.026805188274332346,0.22290566843652881,-0.21860295671330518,0.058561731203393724,0.6388152000414111,-0.020293614375884554,-0.44365993777686674,-0.5087314594630087,-0.3355921933845056,-0.4022197053191084,0.020236351063526687,-0.11449069568697645,0.3332203609109873,0.02863082737393825,0.31934160277501106,0.05050878928451561,0.23248041809292325,0.6202348966608411,0.33205547280853326,0.11860098064971271,-0.017395756432191663,-0.031233686416312384,0.08650072823484427,0.01953607257770869,0.03783534161766436,0.13265023367914183,0.11655990608163411,0.35790863150401625,0.012500278268330165,-0.08958975162841519,0.016303957675357087,-0.11500391115588844,0.05893382079527854,-0.5539190372265919,-0.512298039361404,-0.37359094981459257,0.1814801851934858,-0.17118343188253735,-0.4846325157189203,-0.11321412718181131,0.6214522526482817,0.06690927369772039,0.6166390807649567,0.3314412375255485,0.2840991559673648,0.26047354855104143,0.01761324303078585,0.17028136920728182,0.0658781917477671,-0.05216752343182823,0.0749352790058598,-0.07179107420525085,0.09144095708614146,0.11000411012477836,-0.08802492149082976,0.00475228161332087,-0.015795173236323217,-0.16082697455191686,0.2949307793067338,0.15598395549393157,0.3847698100992199,-0.2862449694929199,0.8875093081394655,-0.3604995004943633,0.16494741062177187,0.35411085356088096,-0.014958324298476102,0.47306038553450164,-0.26353990631259966,-0.042168990720775235,0.48156298579862195,0.4796279721629051,0.06232149342616934,-0.015803753918825554,0.13645075010498836,-0.0018545223329117357,0.0562987165955061,-0.007198814515218213,0.009956817457135073,-0.05106307404019934,-0.027536394561218945,0.024508710788156852,-0.059161913852787976,-0.1309619840832449,-0.1702938969864361,-0.3543526397743885,-0.044971734499361087,-0.20715861779239655,-0.051627508478313655,-0.16014314601418064,-0.1571708990421638,-0.19792406964231682,0.15175057265811023,0.22764940409403261,0.13890433830649426,-0.08069582326719194,-0.22493207454310693,-0.12532122978018867,0.08917019767559914,0.13857820597638595,-0.05272556950062958,-0.1481941521619851,0.041614099470253366,0.03283647420886245,-0.030955255364057112,0.012962828173098961,-0.07878809027874052,-0.08122773693166446,-0.047541662234541274,-0.06204533441412059,0.00760021330414132,0.04447282432002667,-0.20296790910840556,-0.22830676816954895,0.03300284827781796,0.015695946814556532,-0.5153911517609784,-0.7913178593008988,-0.2562530686000234,-0.2850170081714081,-0.235757941322874,-0.35646507465926824,0.13597295599684103,0.4901802124691206,0.1501155612209714,-0.19461873044905523,-0.11819248383370876,-0.021270516627225754,-0.13824183312787677,-0.14244171820556384,-0.15906632029467505,0.06773923417181009,-0.07069153371469189,-0.0017455578211128114,-0.02883615130670411,-9.508337328479749E-4,0.01895974223070196,-0.030915291622820043,0.01318439702992408,-0.11283675456319976,-0.1849620500168082,-0.11671341417037406,0.009068855110553822,0.046851055028801096,-0.05548449869706747,-0.2818226342758381,0.06911586117700506,-0.08966622969189375,0.19589338172550158,0.3680294510918524,0.269221219623789,0.10820266635028697,0.18718427456510664,0.056901880359817865,0.20473961734771381,0.04979926907424507,-0.012448430854329893,0.06087135919797995,0.0864916113212527,-0.07553900935231689,-0.01983497414385002,0.0636802680845589,0.058717490740365,0.005919517730278767,-0.03502982520771146,0.030312945098709312,0.030124010116990795,-0.0018528430851281477,-0.04933143000171273,-0.03222232039149798,-0.059216446703597936,0.045583081508064,-0.04198330064532284,-0.06865288846663313,0.01642057523178614,0.018691245466549804,-0.02317135993732525,0.031947647935851885,0.02540125963051462,-0.04940083413878484,0.0699784261569401,-0.03934109986866299,-0.07831510298628726,-0.09126811082261026,0.04968804293942612,0.06862569611028488,-0.03885848941748296,0.004316855590173349,0.05378595843900355,-0.068563526746797
0.08358427174796967,0.04526743231520347,-0.07406253780301615,0.040265383120692194,0.0415019601302857,-0.055071545627227575,-0.044271577300656575,-0.006038920353537883,0.07728498663242248,0.012188357703011438,-0.06081946470741562,-0.084508135560819,-0.00584920784183482,0.016943431480910372,-0.05191525021161169,-0.0645773504902519,0.0432358265369924,0.02914658513636953,0.060953075006724367,0.03141760382958472,-0.0341703117060201,-0.02656668961629935,0.024804028223739963,-0.004959104305952117,-1.8232684762004014E-5,0.08052163118152308,0.07039083524370873,0.041365627157184726,0.033092344129514964,-0.010912095170920955,-0.06485859661063337,-0.01993660089372623,0.06601621885193057,-0.03862254702654631,0.025252736210286793,0.05558191943428521,-0.02783220138378149,0.04398038417758789,-0.029854997651608654,0.05208745284284906,0.028212184312434687,0.02078230035318001,-0.0070758773934357574,-0.009792535195049728,-0.08487789253361132,0.0566875867514263,-0.06287895629184173,-0.08380264393584178,-0.012882970535910554,-0.04022566773803436,0.05260704431796827,0.07849843277207627,0.07297930349665296,-0.018800002823972733,-0.008198256540624865,-0.006550269734145575,0.05990415473673802,-0.07029033477455279,-0.006362979234482644,0.06061408717068823,-0.009613737673355676,-0.059918924065737206,0.06980122848993488,-0.06300899483635108,-0.021627894915171024,0.04308944569426019,0.02754479933659207,-0.023764362230263833,-0.09776827323081798,-0.15664313178096326,-0.09623321080788512,-0.061746141365850236,-0.07379316282101672,0.06752757751809993,0.025920034186343945,-0.08267209674249376,-0.05970307700460775,-0.06119912729567841,-0.010482511193704795,-0.03737451572583488,-0.014869550715736153,0.08447481691231101,0.025063411291360263,-0.036692439591494624,0.025198805822533768,-0.0031234935428118837,0.05805926449579795,0.0890074996352702,0.016215250268385755,-0.020743924828018272,-0.0836441027576828,0.019900737830380554,-0.08784161230060492,0.058022661695589305,0.05762151269951259,0.02842743029499575,-0.12586893973089935,-0.11032121722857156,-0.01737673928129986,-0.115500419101561,-0.28405444776889643,-0.2516167151817172,-0.03025856709464138,-0.10314180455385408,0.005535240065242537,-0.012012624384330234,-0.05337553510031835,-0.08064042218413292,-0.10201248639477944,0.01927809037654795,-0.04389616745247716,0.06128003045520822,-0.06612297269277456,0.0770839372926012,-0.021527295928937464,-0.07981995609194582,0.06937533900951265,-0.048179201821890054,0.04441472132071604,-0.0711555097929464,-0.056618256293467506,-7.504385557539581E-4,-0.046272228201962036,0.08512986189427048,-0.09149843311412698,-0.07516703699030976,-0.012557315347424314,-0.2236570944378926,-0.35266921628162845,-0.16832542610164117,-0.2008323107116712,0.02600676382285159,0.011185828223159514,0.11416282645408954,0.03087452028586132,0.023824508199390377,0.051092952845034144,0.005179570682947841,0.03184886292708256,-0.07437649698276667,-0.015794684269952147,0.037218054498363226,-0.0014949317378405358,-0.07109301482739633,-0.02564361808697434,-0.057860081128877215,-0.09645422143962387,-0.12260694336801518,-0.023759201357833323,-0.06368215324667742,0.024953148588272217,-0.08820073728740993,-0.4484541652434422,-0.39813752998896423,-0.2576221523281931,-0.2509444537299937,-0.3865904560191212,-0.2223152395295498,-0.3539244687634313,-0.2195815645673324,0.05016275615766109,0.019273706444768626,0.12347918927712179,0.03206534617764603,0.04573904059074813,0.003025720790212721,-0.05882505711596072,0.059551330548092384,-0.060770384173930596,0.06861637918650128,0.021715494278824573,0.020817179054178948,0.05576421043173468,0.04897936174827101,0.08604188613433977,0.09017730489725821,-0.2627150906459018,0.29579776687940873,0.6314380036768223,0.5223732193440956,0.1688064893999898,-0.22115580128356369,-0.5417940441652743,-0.2120156570556334,-0.4813623086881331,-0.12981492841066572,0.05044395944946512,0.3959966065341718,0.3076587894813609,0.4670311283509832,0.17885573192015908,0.07883512511733629,0.2065301022786975,0.09058537379078495,-0.04112370443178512,0.01817435197029588,-0.058890541867813465,-0.045957010988005184,0.07362129970131417,0.14575043337699967,-0.052938550927265106,0.08862262438633442,0.11793132429458676,-0.2408669005348009,-0.2823520717726081,0.3053982016865538,0.8517980325257158,0.6244796207753731,0.3149815236782824,0.250647452305355,0.0022875966308512166,-0.08062795649110567,0.5546017933736648,0.061836446875570515,0.012320162082207499,0.5005173944566681,0.7554527294259629,0.674613765813494,0.320251719343587,0.18125206550730447,0.2512776759412229,-0.008770189186399088,0.12052204627176683,-0.07846891822590064,0.03928430156348538,0.07782967656742645,0.06980957342529075,0.05838234097043924,0.03417040581181267,0.07040573909969258,-0.093219405408007,0.01409962034900178,-0.07852892440691701,0.024424229186389017,0.50837534382632,0.6538778515023929,0.49173400069721096,0.17813641479835893,0.2662063109971136,0.48981181726702255,0.2850074907737868,-0.10850046601857606,-0.026585341812116765,0.6023269811919904,0.5511353556230669,0.4215269898594038,0.5315849217547741,0.34874694431034464,0.17189546667680272,-0.07844414938455409,-0.05044428198531548,0.08047620607284141,-0.06819063028175633,-0.0036290555510570207,-0.03640667084124643,0.023583669548635264,0.037041963741502475,-0.15971280830214962,-0.22822597970861325,-0.2859295543849384,-0.3728448432921235,-0.10055840768572394,-0.021694435060353248,0.33626760043958587,0.24464434500586718,0.19059220457413703,0.5269856301506938,0.5502237975867372,0.5902379604165948,0.513334441510351,-0.13006142394325904,0.22346335029567235,0.38018102022539824,0.48240494243476656,0.16702520769007895,-0.032705325107066634,0.016818463188160274,-0.08639328679377342,0.047750501068859925,-0.03418057286403181,-0.008036244060713127,0.004709542231479166,-0.05266408293855999,0.024025891922735482,0.046274454790711156,-0.4195904770537854,-0.48887757853303954,-0.3603334889177088,-0.10551595572773201,-0.02442454208918947,0.1756793141753863,0.02890962876520757,-0.4414581595287995,0.701306101959912,0.5940374905983035,0.19576761306508952,0.4298543483948218,-0.31341759956182647,-0.35155241761875716,-0.2510582964525605,0.19990732313340082,0.35690516792747523,0.10838679005272794,-0.34021093905621175,-0.22034753645144034,0.01717445079684134,0.033663103875002154,0.022782531426384908,-0.08515684233475816,0.05260393275293457,0.06630676184551226,0.04652353905947738,-0.07158156346700649,-0.22447208663467516,-0.058419253089725454,0.5996581525240071,0.49557712374353247,0.361980651557546,-0.29786918604281604,-0.5432367562956845,-0.39650707164600385,-0.1244666953931298,-0.17167725871780098,-0.4541305563150287,-0.7772450834890725,-0.6533402117746676,-0.7404214889830762,-0.4328608557044489,-0.14671851504787253,-0.03827002494988265,-0.3282252294033504,-0.47592986663423414,-0.34769582370179586,-2.7419698837551835E-4,-0.06403659869245198,-0.02107548787199995,0.009997398787620484,-0.03870436475757675,-0.04039433914089626,-0.009518920376356528,-0.14614928705993593,-0.18858685430404717,-0.20667347741148465,0.3953334146527019,0.46573108624000475,0.22983538505802864,5.709397391485199E-4,0.009607611458600208,0.3794575340996119,0.11130486678381726,-1.1477446659588781,-0.5534914162440935,-0.8339075696701974,-1.0360699652067256,-0.34729958010512907,-0.43693966172635257,-0.6662764546697706,-0.3293889551292106,-0.489020630884927,-0.4752376558224726,-0.39533404333351013,0.04024629930085741,0.042734839592279715,-0.07503400466356233,-0.061109540160245106,-0.06774987409883902,-0.0478836046892543,-0.08729652030957995,-0.27885256628824845,-0.35669265670894246,-0.21845329955588708,-0.16334175087609065,-0.2422177749882987,-0.015017133551676401,0.11891080009492634,0.3214201656774434,-0.08307955026806536,-0.6219166137479881,-0.8692553352083523,-0.7258450162861817,-0.4893012126679855,-1.1628381602861773,-0.56456914167757,-0.46886267176997404,-0.5315007962757372,-0.5951210304771392,-0.611875515082894,-0.5812653106377615,-0.3521902875960838,-0.07295663543756427,0.007367708482015942,-0.04621839237755551,0.03207495141072299,-0.06742677734985049,-0.046913063082451835,-0.1123047619295447,-0.09595380986290704,-0.46577857360586156,-0.5058612960277127,-0.09049118051887561,-0.3604631156897136,-0.46718873912341946,-0.13004713492522324,-0.41803974476759276,-0.32864917319770687,-0.7384046330013977,-0.329568062312641,-0.04410469092191297,0.026654150535359702,-0.984445933981485,-0.3457327543983199,0.06642570436772738,-0.47380864897146596,-0.7107438040050508,-0.5648340338369132,-0.3599253864399505,-0.3147035509779428,-0.07483902668605809,0.042238399453375035,0.029065181152088466,-0.01253876022231936,-0.04785396560250826,-0.00755514404766616,0.006185293591275115,-0.18852796557595342,-0.33025989515045645,-0.35029880754623827,-0.18015924334499844,-0.5510300118435818,-0.14930375915414082,-0.28551592300202955,-0.5728474276250843,-0.1347161720054841,-0.6029134469840777,-0.28027494838725125,-0.15485695187386644,-0.6780519677631387,-0.1868718602724978,-0.02283962282743359,0.04294599091927181,-0.15483858168007542,-0.35945038652367745,-0.19621015613440151,-0.3287666979989661,-0.2825687543264271,-0.015493611094629878,0.004307600114308001,0.0707669827219243,0.00723541063560267,-0.06248769732256542,0.018956167900172162,-0.0626420201634537,-0.21642031098620396,-0.20937275331567665,-0.4342787339149576,-0.12024050715921375,-0.15278188717195565,0.05783325561227157,-0.23677504294768445,-0.3521908187760662,0.07888219342016928,-0.11835933109524781,-0.22218127437596394,-0.46713254419132005,-0.45091738575704454,0.00333722873428723,-0.07472717830023681,0.19630851594911777,-0.11047559280065598,-0.20879848603536563,-0.4295998462793369,-0.3995643283151122,-0.25842462017379186,-0.09738210710362567,-0.08402619054732863,-0.0012918879538754697,0.017485028093686614,0.08325755820456657,0.05441352700613243,-0.07388022009444122,-0.013708878657718018,-0.20153874365862207,-0.4168489270623831,-0.34880362938059783,-0.10708238334157116,0.29290270853309014,0.09221764787516476,0.04429401947912074,0.16977485272576745,0.23433349517779012,0.08616834897443586,0.5379913552533513,0.1692440806660073,-0.1809788155694906,0.021220044259442756,-0.3279990945240433,-0.3796669921075176,-0.345716874110508,-0.11418082224777126,-0.029354588304027932,-0.07103544473659724,-0.08049001963617741,0.057321360850733756,-0.04868496156914247,0.0059052884099660835,-0.0015069091301073872,0.026166301851843803,-0.06330034037090888,-0.14494485844854052,-0.19954043629413623,-0.2632898311490559,-0.14253660067105461,0.09667739828353981,0.07715412017679885,0.36948399873870214,0.21046687372337083,0.6241253369084244,0.3402466949967135,0.13029657972828712,0.7062608488435245,-0.09859826170311568,0.055612094681369385,0.15228927204534695,0.09597326984296276,-0.11463884334296699,-0.22758037897289976,-0.308351786252852,-0.17677750296613026,-0.2178580378453641,-0.09617789707485137,0.040944921584246535,0.0536508709768626,0.05737133725916575,0.08424543010268602,-0.0026015018226661643,-0.1750984525057006,-0.2761252148228697,-0.17121163041783183,-0.21720240351794307,-0.030521099686432008,0.11230326663499197,0.6133298604165847,0.6669328800097349,0.4660994286068912,0.6857780163289523,0.2647290991596989,-0.0598380430508154,0.14060359164647057,-0.5212136094454596,-0.33996373842381933,-0.3321752889262048,-0.13622310223050027,-0.32558318211553783,-0.24710801709091215,-0.2376636025571042,-0.09730853109284503,-0.11820553238143867,1.3829775407829607E-4,-0.11531053287782578,-0.034379398988620746,0.016728842663748772,-0.07611305399964577,0.07563146844818229,-0.03129748609910026,-0.3309860505929775,-0.05499458088750585,-0.16964034670090877,0.14116415948909786,-0.007809153848159837,0.15526036788167863,0.10221811790245228,0.1849570818005049,0.4238681242660035,0.14172319887624782,0.0595251772169091,-0.02676581861218456,-0.6740317386000698,-0.9383338487890321,-0.511166918480922,-0.2984186236134341,-0.3941864602154607,-0.1547920885771183,-0.07663600193355949,-0.044859256894922137,0.014748787511666342,-0.10017938283844323,-0.05533573182609913,0.07012693882606585,-0.08285188470882218,-0.040755909899373124,-0.008818591469975982,-0.1423002849431066,-0.24994908883297792,-0.1562143384898509,-0.17939304840525822,-0.13018869843735867,-0.03344012469296765,-0.20296277883634448,-0.10402447914732205,0.03330679289273989,0.30164963134306366,-0.035072710875670585,-0.03855842002815741,0.21858363325134897,-0.5299850978072846,-0.6414220109943549,-0.5446466538763319,-0.22228990709486193,-0.3842306789786142,-0.25118093621959486,-0.148227835025828,-0.004693265343043064,-0.05119692787315518,-0.017990214086656613,0.034757202615417156,0.06749325280291073,0.08023196176690653,-0.07199371270085438,-8.529967960991575E-4,0.021492908589212354,-0.1093867440495581,-0.05151175822532553,-0.08970485371030086,0.23432011294216076,-0.07803325279197275,-0.08649260818154436,0.3460992899327617,0.15543850483860375,0.377742691285021,-0.0267177919010668,0.2678190762844964,0.4198679978710045,-0.20848613899377058,-0.335260811712828,-0.38013516272284026,-0.026525079060259648,-0.1236475716146036,-0.19595702156589456,-0.21737568289590561,-0.05429519841524806,0.06690683789431752,0.0367500094403157,0.030813932779468374,-0.058650497018086174,0.033783379692046436,0.012942116657022246,-0.02139226539138801,-0.01974780022661544,0.053982150231181615,0.013112991062288984,0.11122067521862558,0.1788747462681704,-0.4275569931826064,-0.3625322468772224,-0.39577494685012526,0.2863985571864077,0.06094250190852522,0.5244875913063358,0.5939504931018798,-0.16856825431733008,-0.2577638041467619,-0.7290483451307773,-0.3869195330765575,-0.22331759603117388,-0.23245389795014842,-0.14006301512413802,-0.16909685979638492,-0.11026244013532831,-0.005438888189199459,0.07483496153582031,0.05645190934480258,0.06792256822868711,0.01930497705202802,-0.0422289334124576,-0.038375248250843645,-0.006928117638611031,0.029841209827311,0.03997717483829214,-0.01848404537388929,-0.0058307545636913875,-0.06960133305324838,-0.7536963527260491,-0.4675070865718753,0.37935287383537464,0.10299193913109289,0.47053816793469555,0.2704247496079894,0.36324051339661917,-0.23760553224633826,-0.6478418003604555,-0.5149035331701979,-0.6415434334322082,-0.3328701111123462,-0.31979682491727757,-0.29693219476965715,-0.18557069548341615,0.05924384000312902,-0.05615716857526363,-0.03072365374866152,0.006005052614805967,-0.037046125737244674,0.0657212474716353,-0.07211424118462963,0.002270487554940299,0.06505105329868732,-0.06850630303912114,-0.025233257976469543,0.16856784517055948,0.04988197677786688,0.11153201731490449,0.6849830113911961,0.6834872832046015,0.5514098557648605,0.034087971095771316,-5.390746603051428E-4,0.6467586983233709,-0.010870148768707278,-0.39569898830548583,-0.2052223098546444,-0.26924001371656986,-0.24772159884068112,-0.13738549716526696,-0.042871719380863496,-0.0592890571975849,0.029497364737536263,-0.03462772082726229,0.011702173669395046,0.04628475601048923,0.00484447662959922,0.02436902357451308,0.0184902366974653,0.03074626286680188,-0.07344700381629075,-0.05338383991999297,0.07331079224330274,-0.07843697741756461,-0.0435293105720391,0.018973381121225718,-0.04233590629744508,0.2664791727110348,0.4821016911883712,0.3549011383203257,0.09430557013243134,-0.031353027447155894,0.04110898483645954,-0.027138204008902437,-0.0850082349532217,-0.03197873714772339,0.033270081414096986,-0.08559808038324115,-0.019672657123739536,-0.07486365417407247,0.07700915054678949,0.057868271838654964,0.07319366835590302,-0.07031300940767184,-0.053233628203523564,-0.008900215339106787,-0.038581771055431646,-0.05888895824363276,0.05887226120956274,0.04318266073626001,-0.08201517834488796,0.004462273307261867,0.045050573254149566,0.047905789454549624,0.08128599074292724,-0.06041896333128741,-0.1482499105568764,0.06567268729030429,0.022574248471173994,0.0026265749591520985,0.05416689159748714,-0.049350697578709475,-0.06282819707789723,0.019653898742887074,-0.03136939628309133,0.04944435233251142,-0.0019426467082962128,-0.0031066115988086997,-0.0023313709898870327,0.06953019332803859,0.04752858515556366,0.0756738486489961
-0.07103664377102624,-0.03768740073427879,0.010352303974323587,0.024862869129523055,-0.055563972512740624,0.05650959446261361,0.019042606922723068,0.0841274286707368,0.006232033224352729,-0.08598250679058425,0.05601668600750062,0.03108676487877425,-0.07147545741403975,0.07204997732789976,-0.014018547095149965,0.04552141716142551,-0.049635828928444786,0.06194982993287343,-0.03579970730515475,0.07432114131805834,0.08148193012914978,0.04066316365769912,0.0801808080830825,0.07572310850086159,0.018180384644389994,0.06261932851379506,-0.06693430730976557,-0.05782079099517995,0.0736700673206179,-0.011595949891906668,0.0780040301625923,0.02025921739267013,-0.027866368555236276,0.07513116499682666,-0.07470858174292618,0.01158120347192094,0.059487963430330484,0.06858305705418445,-0.07625244358375838,0.08008647447929655,-0.01266405395433051,-0.07235012746080567,-0.01569275973393932,0.052000079438781925,0.01504421727901314,0.018947841115161616,-0.036519399563110407,0.021999675687905916,-0.025166051858861584,0.013698857701957667,0.06301579657815382,0.04886828469887013,0.030576487773363942,-0.039469753057036,-0.04478861218238034,-0.07120767014592025,-0.05224354227734491,0.07235808129413568,-0.02828969596122755,-0.02041453576494053,0.03321583510984685,-0.05704615625813367,-0.07054713569660667,-0.03734609418767611,0.06722055459366727,0.03019257080128555,-0.03587657353709841,-0.08678889444393881,-0.060523645250148604,0.06502986023329364,-0.09996916823357598,-0.14182931523114053,-0.03777497258546099,0.06177823871878839,-0.003213659065630293,-0.09777741269797627,-0.12897084588963334,-0.04806282831136369,-0.08482339480485483,-0.08310823351889743,-0.03578093179476926,-0.06534903618938233,0.0501578313717462,0.07064138191839847,-0.06290147696393894,0.07588343694225116,-0.07929657906280246,0.014157511646776129,0.0732649223997652,0.04164530057830706,0.01584944124372227,-0.07499795022881867,0.07100891414587754,0.07955056852643005,0.08755586862595585,-0.0013711984205819652,-0.0021181785439358817,-0.09855921123208712,-0.23908119583773815,-0.07752380206599704,0.07251259262965092,0.015364966197763869,-0.11793091378931705,0.008389224880987865,-0.1944615121351089,-0.1197686558458859,-0.2329284268644389,-0.12972716146680396,-0.05638488141410218,0.004750743144105166,-0.005255536946223362,0.027921313348786503,0.07997103441847983,0.046854091763320026,0.06011869651797805,-0.02693830003190703,-0.05420884352467974,-0.10370012819256316,-0.07654896794709827,-0.14092381064083134,-0.20065986110179848,-0.07478612144948638,-0.14509688225598105,-0.15863043855798095,-0.15456745616306677,-0.3641553866628574,-0.5401095803017524,-0.48264697773595955,-0.20533477541516928,0.060250592894393426,-0.06098243199780927,-0.5957208949050045,-0.5754701878781049,-0.40852099167585915,-0.09056366256766939,0.16488675414018789,0.09560735365004386,0.08611293651901741,0.06803267088581928,0.03381497056609727,0.0035621817985008186,0.07533687593215896,0.04755599609858847,0.026256838156705545,0.042941718222848875,-0.033674315918744674,-0.24443110957500905,-0.21409020440551288,-0.2704684607752453,-0.14376277497986029,-0.207299160096589,-0.30659744328328314,-0.3489922668138675,-0.21682056655449444,-0.13231913173895435,-0.4439990403436154,-0.08730211319733304,-0.10343102772858145,-0.010650337430421613,-0.13633246212149672,-0.07595047071900457,-0.23834906671607653,-0.05459007356441741,0.20026703872687232,0.2309168973793468,0.031608430198625775,-9.150082599249925E-4,0.056878854888757886,-0.07981740397020363,0.08141811366041651,0.033548526531455174,-0.08291186792185677,-0.004943147501540024,-0.10993189557560344,-0.114232754184606,-0.2842026501467352,-0.4351070424791516,-0.2337518895587056,0.12660130253883975,-0.18071267139566796,-0.1911806383671425,-0.1771091086811522,8.501667492378693E-4,-0.15667857167809088,-0.3766436324721662,-0.3676395781723928,-0.2349301846054091,0.34982126167375915,0.3676620432773287,-6.098650148542376E-4,0.11951983312739661,0.2769580998701655,0.5024521069919159,0.1377914585426884,0.001122399408278968,-0.003741732323943976,0.0333925314785325,0.0121083317913905,-0.05157606953472977,0.061482557122147896,-0.05587906851002454,-0.14584410382902252,-0.1663485767453585,-0.23470574039184905,-0.1897735478296815,0.06704646127814327,0.033971990863204404,-0.13461996295415293,-0.1941834843369636,-0.011404663928716629,0.017457964635145536,-0.15609836919648887,-0.12467987885820843,-0.01928363697797577,-0.17578672461189204,-0.08448078927273132,0.14483337103989335,0.2783532387183408,0.2031019374722895,0.45956901582473414,0.37156465235730424,0.20475684109870457,0.12011561987109665,0.007896888242085832,-0.08356002587620474,-0.05475911626614765,0.08405848810226592,-0.06677223748026308,-0.07959060814573764,-0.013002440043016867,-0.15570934743450995,-0.12082574907836326,-0.16065808497986658,-6.019199182515541E-4,-0.1495473031255133,0.10533385915371696,0.1094845123853549,0.21220597053498497,0.34397911187820157,-0.2585920609612807,-0.08541510983951135,0.09671176425395339,0.005243368052826766,0.3389296286827536,0.6913415976498055,0.4985709367155669,0.03158319926021654,0.28594035564971243,0.533759333089097,0.45951120753544117,0.030287791651584045,-0.04038990184718831,0.02458064466866276,0.023764461164821324,0.023974569520937444,-0.08074778659279537,-0.03305949902624107,0.0327618653253811,-0.11970983315631281,-0.05278483984010331,-0.05388473724280973,-0.11872722945696225,-0.07697594617494628,0.3159193468408504,0.3360424851703039,0.7613801839286142,0.520676142821687,-0.0031911869809790436,-0.16815752661617558,0.025595392735837004,-0.0011541360625910763,0.15274735732685424,0.4267020236988638,0.5203870231365318,0.16811745716612495,0.04240599959648682,0.6116462494357577,0.4468551144015209,0.012228837346067875,3.4409840559593557E-4,-0.031447163466801424,-0.003297105149194638,-0.030760166348662056,-0.05536786173702447,-0.11241197546770533,-0.05063495759372181,-0.05252648106172616,-0.05030200358698048,-0.10730452239948442,-0.2619955390293063,0.018492156844404,0.08202272203042955,0.30291450948647464,0.7063267393189775,0.37670715004993666,-0.07281533455409997,-0.4146256211119296,-0.4298904593579168,-0.37911770444449966,-0.46552697081165323,-0.2198996342704894,0.19585645734334203,0.07433797880152114,-0.05144985598120915,0.4893550171489364,0.2190417730365411,0.05294523439030662,0.0625092866633059,-0.021175522482663644,-0.026227769439418295,0.03911450621627718,0.0035077526603915932,-0.025772690312954042,-0.14334995924898766,-0.1398744128249625,0.020251136323461556,-0.22899863731858242,-0.3903507672734085,-0.2174227543699256,-0.43878907612960216,0.06824967666762534,0.3781539043670368,-0.06770468215995488,-0.4652518863740601,-0.9346210375998744,-1.237490162980725,-1.3117180660217698,-0.8600883990912914,-0.6690847725237752,-0.21667975218332883,-0.4160896696973872,-0.24275963138070625,-0.08111759753355194,0.05366711078172302,0.08141056395415593,-0.027548057995796363,0.01309788039610014,0.008298516902732448,0.005788385687374859,-0.06439322066144433,-0.16889117452234603,-0.16582361332473725,-0.12766162097683093,0.018607332086575022,-0.03172930051936749,-0.14298813259131246,-0.1125782418055687,-0.1141103377535064,0.25140240655273977,0.756693833569877,0.3314487993495628,-0.3488482313863345,-0.9695962295140105,-1.0108749676359385,-0.7735389566445218,-0.5264731925869721,-0.444901969137374,-0.37852903305218744,-0.3985363189445049,-0.40355872113142427,-0.10347921921671382,0.08294429549364801,-0.07501708813551518,0.07204845501317814,0.050086634140164094,0.022153059147950373,0.020978306124280303,-0.0455081765680428,-0.1055914061264574,0.07050304887021847,-0.046511444044403494,0.34014597437391253,0.18228730412796793,0.21839310242524276,0.4816522430516034,0.3477908185367691,0.10684510668423652,0.2611457100375265,0.4306522832281513,-0.09650137546573316,-0.26599979478320274,-0.41768042865530336,-0.3903040064879396,-0.19675014398293883,-0.42179307830123797,-0.29075892068447284,-0.18228656237312169,-0.024433850971382287,0.0029604252170021277,0.028834190862314802,0.001986509480143889,0.012250732465497292,0.007178865896621799,0.032726232413128,-0.02956048115737308,-0.02506363161355065,0.011744543194141121,0.03443050366768977,-0.02499183855011219,0.07024902165057932,0.07589584239662728,0.13544218440739772,0.05762010552608577,-0.4418476201893564,-0.15270975925267055,0.2325661612080176,0.053411027412703364,-0.019316450778047264,-0.5446922962059342,-0.3844593649163274,-0.45234631993992513,-0.38077431468531014,-0.38803779904887004,-0.07722230273876474,0.02290522186858312,0.07029692038423405,0.05518231502702244,0.10352270839156874,-0.053713750253279555,-0.01870405042303283,0.06623763385891235,-4.7011253011827243E-4,0.04590847815838024,0.045766463529981184,0.06455500717479652,-0.1465108752204182,-0.0820345325128528,-0.07089260867417035,-0.18103920227575582,-0.1852504636966084,-0.652041836457113,-0.5682980139869591,-0.026411694424382615,0.011968902606794543,-0.26335680985756693,-0.06689644751276826,-0.49064077781784765,-0.23323764334631064,-0.5459490675795831,-0.5038739327200772,-0.03240961841772599,0.1545043978074749,-0.11414030622890878,0.21348817264406694,0.19381649621735542,0.15058763247917403,0.09706488627368139,-0.01701525922836832,0.03803443354333307,-0.017680877180401695,-0.03221957910643413,-0.001909725588132103,0.019907919721339363,0.03066888821186528,-0.2250313084631897,-0.05589598820001433,-0.2517747404358849,-0.13666196956903406,-0.2142064819499912,-0.28860949660447865,-0.14789088983225976,0.2420485522824607,0.14770335032151988,-0.1554125258087612,-0.08253022736284887,-0.12977708515009695,-0.0849435615043013,0.06337309166313362,0.3841757105053899,0.3055155184640467,-0.0012934872695810281,0.09836260209255214,0.16265971486525163,0.15179872657366547,0.018954206179120765,0.07056998456081832,0.06859687849948934,0.008700319100323211,0.0556210838672089,0.09493736299216285,0.06313668758168751,0.29053217875585624,0.2021044572936576,0.19252387136969562,0.08223518580510343,0.04536501823623859,0.07955083888655103,-0.17336358388488676,-0.1918472831700861,0.09055541422775085,0.21576335992429613,0.23649782952991938,0.16388435118439637,0.35519165917766937,0.4412478882344838,0.25582104154530616,0.32619196155608243,0.07371123432556273,0.027837804412671002,0.2449947013018904,0.09273651346801447,0.10941456012916355,0.11252499998583375,0.06158703598929648,0.04690424232579497,-0.025362764109028896,0.012195650403663553,0.061606052318188075,-0.004576377861173981,0.11329704361346031,0.3720022645924746,0.4407145817562704,0.037144682553212946,-0.0615451171285827,-0.2874201561525031,-0.443418494032362,-0.2925056583870175,-0.13108265746542683,0.24385541346979103,0.15333662699259515,0.645514291696187,0.7199496168943896,0.4137634857022338,0.4008801317421887,0.292012233982217,0.06477525178565804,0.13301459917548994,0.09582846967642802,0.11202601027701083,0.10721912357751914,-0.026905657533410968,0.055553777839460555,-0.07435262176318759,-0.06350904937786091,0.06946990490348363,0.19462733883522718,0.014887570453409235,0.1933528573672702,0.4640257892347689,0.17528133206905977,0.011529524317113082,0.06576902354256106,0.0388560559444094,-0.08607696595512919,-0.13940271176883,0.03219767620957248,0.2569925845365533,0.46294975621670004,0.406858074645521,0.26069105930387193,0.25674055623542313,0.0823913837354026,0.10100387482054739,0.20479668720929955,0.1495442454213941,0.09568259101758626,-0.0020628874248276455,0.028581213852751617,0.03447098487920547,0.03389573120096905,0.047020194582470975,0.047631325482708285,0.13214456631791563,0.11228912525252187,0.1346740637450599,0.25529243412153285,0.15410280506556007,0.13177643341699072,0.3091929339509381,-0.07897436937093634,0.0642751866085049,0.22311283673791565,0.16195897265139556,-0.1685035022286608,-0.21600313231708063,0.10024633645973513,-0.12246428307867438,0.08675420404078223,-0.09603785687670228,-0.2904312406596051,-0.3125408985626497,-0.18705555827159154,0.032989833638706494,-0.039187467849745944,-0.012316961194921601,0.028271798688618684,-0.07307686118136675,-0.012007946952403958,0.06207701867533588,-0.06923779681936243,0.07929380822878837,0.20094556418897386,0.2314220863223781,0.13219733891181942,-0.23148665125743145,-0.22606836427718788,0.13187361426549438,-0.06722751181743143,-0.37009911625083175,-0.13974316408311108,-0.10088151341652815,-0.19053601388884134,-0.12629976177437535,0.10410043130839049,-0.24647319656095273,-0.08044206701133012,-0.24198521491212366,-0.42289394238386474,-0.25240523521822616,-0.2427371882510002,-0.05711735130044526,-0.08456750000881977,-0.06014191390737746,0.07593028951079357,-0.03553939751134779,-0.012995743896202977,-0.05588450919540604,-0.0408077086096632,0.1019922380064514,0.02196718985483287,0.04426368151339783,-0.17049813147890666,-0.170863507948426,-0.3845958387122926,-0.05961876466876719,0.16749817119010177,-0.17901365943482656,0.15510324909060225,0.185585830865675,-0.3944631121106578,-0.4002565073207389,-0.19738345727416623,-0.14278875167425525,-0.03979975921829673,-0.2981106559864801,-0.2534182029860029,-0.08627925428273353,-0.18223086002444155,0.012454923549055034,-0.023488493346212874,-0.043096333505188454,0.05636600924381094,-0.05315682145997061,0.02354680773114792,0.0794285197048723,-0.03765865412940942,0.02082904760317772,0.05859622529629396,0.08423880400115383,-0.031786188252477934,-0.03198085421675617,-0.22163734918364794,0.11188993914293573,0.3278152739351314,0.19995038085402891,0.06982445951120501,-0.1449442724081879,-0.6159320285234718,-0.3627206327118254,-0.2935194348102266,-0.22749478051198094,-0.23780150192473926,-0.40644412579701944,-0.42062212687021566,-0.058054837273152304,-0.0767335658621753,-0.03227110706337428,0.041843668086942926,0.039218234106474875,-0.026821461541870366,0.08093348332515284,-0.06276834380624645,-0.020508932473464483,-0.08046900372358719,0.035555071085103244,-0.04363898752964368,-0.11655116630937994,-0.0636228837852579,-0.09135407252740933,-0.20640807331968974,-0.25089186233446215,-0.08077559839605934,0.03138892518431372,0.10347310017150715,0.11197529698031124,0.18089408785908553,-0.07067033921905362,-0.27604477710105774,-0.1608339300570809,-0.16123894020989,-0.18573488274974634,-0.00738211638186491,-0.19520065945984189,-0.04929317063867087,-0.035455720703579496,0.11714540427947073,0.0029094097360122502,0.05997173665159298,-0.013377659909516367,-0.07554675738745645,0.01726502662667638,0.020160915238364677,0.01058113453142775,0.0722278955494408,0.03764197311343198,-0.1426667439144141,-0.2611523504148664,-0.18916246875352094,-0.28244318685540537,-0.14636086455028993,-0.12400000145008103,-0.011243399103389064,0.061879937605368994,0.023902211943459407,-0.36828012332145615,-0.3653338908935214,-0.1609295434122062,-0.01766232679718091,-0.0193454396745232,-0.07811962700849687,-0.055229825420004396,-0.10429386265320255,0.09535003189886128,0.07108681306194035,-0.032779727862826506,-0.05074952172701754,0.02779677645952475,0.049223119071702875,0.013646117366140575,0.0706190568176924,-0.05653431923487544,0.05410785330879695,-0.038710459496797106,0.07392541397433314,0.0035353818061442262,-0.08801493650842045,-0.10191471615428199,0.006430384523210738,-0.1707558264645098,-0.15935396391557763,0.04369642071990061,-0.025027258952869093,-0.25912556202327625,-0.14477856008951467,0.0362579837867718,-0.11128774439901284,-0.11931034625380975,-0.029904983339165896,-0.06315149439031309,-0.09044407308170634,0.06757710061375308,0.0477317798107006,0.044470941519522425,-0.03487597186344424,0.036853105004828884,0.06936444663256053,0.041462155315417526,-0.07910566377641177,-0.022395383286990617,0.03593096437790763,0.031850964409163345,-0.04876683316529011,0.033695851321431235,-0.05066236710229796,0.06610898881799157,-0.00855689898437347,-0.055324850751264094,0.05434555494992634,0.04296564205961399,-0.06619876860856709,0.04952489106315588,0.002122926616229453,0.07979445824281066,0.06096871637375762,-0.03755284810719714,0.010238503985479794,0.003507432099098649,0.055428886012208155,0.06540107632175106,-0.049613211207887316,0.0704239588091213,-0.019905210784662827,-0.030758720632026032,0.023066251801248563
0.05240591278827564,-0.06183625685503545,-0.08606376897256872,0.07687939452332504,-0.025786598889348845,0.06885893974917573,-0.00866327395258576,-0.053768347213985754,0.08405168184626857,-0.004766573444948782,-0.01709087139547072,0.025186796733098676,-0.0065634092651110755,-0.07964093461809482,0.05821246132233328,0.06396695816339285,0.02385431689582955,0.007353895677926811,-0.05459473488541081,0.08664526470102371,-0.0035555378570906876,0.03415856953726515,0.01298792592650401,-0.01275293898095807,-0.06154845299234667,0.05774187066459055,-6.655835418443168E-4,0.016245795301623775,-0.05689090218774371,-0.013266585671071363,0.041085800927243066,0.0774847379247171,-0.06442100323453648,0.023507290242621357,-0.10372257324109435,-0.10700844885651313,-0.14574682208821554,0.043136858802079854,-0.01122874703883969,0.013408295505567573,-0.1632680039074319,-0.038764769060632115,0.013675500902318616,-0.060302462187300176,-0.012628979495265022,-0.12200201783331767,-0.22030022276735017,-0.20812455599869165,-0.08836667859867042,-0.0012768286714048096,-0.023902360333616566,0.0629552742084045,-0.024531726734639263,-0.03729160408909324,-0.042108138808849865,0.07448718183410835,-0.05505812376249523,0.01644212355685673,-0.04671334056391591,0.07835320921324784,0.0859801367377318,0.01629643598046533,-0.08103019275179987,-0.0696810455694775,-0.1752283830330088,-0.033859516571658275,-0.16704998031388035,-0.23355001790850227,-0.27117639117033976,-0.19851124907469478,-0.1981873985522549,0.003907304523227547,3.9526987811355535E-4,0.06562186753800978,-0.08351200485963423,-0.20283109352703918,-0.055125543155351786,-0.09332844534831262,-0.04776517467684575,-0.09371885547204024,-0.11438299347641817,-0.11423464711907652,-0.01982801549759322,-0.049025626205048675,0.050106959807898144,-0.08484820188377916,0.06323346066165642,0.08559262610054602,-0.0816586594260907,0.019812122216220293,-0.03426286682651006,-0.10380274199380699,-0.08227183425400884,-0.17282206943018755,-0.1934686316316692,-0.2233486532286076,-0.45422568055988544,-0.4813366671301301,-0.4080435610226149,0.06149999346919765,-6.653162854666968E-4,-0.014219811707765723,-0.20415007490952505,-0.23049007092839446,-0.15426700507565358,-0.1507398876052909,-0.08951143296382001,-0.1464251287723927,0.018380234958523457,0.03163291178447725,-0.04430527540056032,-0.022717768900793245,0.0513539018985773,0.043521104920400115,0.059840477849824235,0.06254595217320122,-0.004079344955648834,-0.0012982085146086195,-0.21935039094165915,-0.30520780676486425,-0.25249797432038235,-0.18727302880445135,-0.19922391612488488,-0.38006116832255477,-0.39528540861038197,-0.6195870059551022,-0.5316168117026494,-0.4375358163007604,-0.5252532130249733,-0.3006431518410723,-0.12353477405917695,-0.41660843239003703,-0.2937650789525605,-0.21801645915824447,-0.1552976197596447,-0.11518759000766822,-0.043429335195092934,0.008601672899993593,-0.11242829326124328,-0.08078779030190764,-0.018746280886854982,-0.02236815295439884,-0.03604287839882772,-0.08095018008830847,-0.03466588917381471,-0.05152694847637874,0.10536541704933823,-0.19751102418620697,-0.233813014212666,-0.3224979900361843,-0.32863806869603956,-0.3698507420893069,-0.2121064022896756,-0.27193238917749013,-0.6479356611205362,-0.5984216615737156,-0.1489723954682129,0.29084062768248486,0.3434124047186433,0.16292917406869714,-0.1353001323075499,-0.11110407780344626,0.2459643805810195,0.163196589788203,0.04470653902280412,0.05226916754257808,-0.08116562170088992,-0.020881405049697977,0.026769845485378488,0.04005190993310267,-0.07675149055944339,-0.020376378979129074,-0.01268570042750054,-0.018373293609145223,-0.113664875453687,-0.06703439389147002,-0.0845234143718801,0.05627712435243613,0.2173391645524899,0.008512208319340386,0.1467871125633658,-0.15134715458659181,-0.4377944913935369,-0.47213999384491545,-0.4521164147602534,0.13177640416457861,0.4763355448939302,0.05718907188278974,0.24876999253903775,0.03457357684431981,0.14200257574803568,0.10338923074752318,0.10990047731403275,0.11176851258188406,0.05775563136006023,0.07357950940441427,0.061283426387261274,0.03719993410366226,-0.0507902462928321,0.0706945640610994,-0.029131821995250974,-0.205526746932061,0.026440440053591155,-7.808138077468129E-4,0.1700535772246872,0.11600888779024496,0.4276185759307684,-0.04931356777537841,-0.0761088607066832,-0.3823883814058345,-0.738962319439153,-0.5541654489105077,-0.21620833369332748,-0.18556680774870193,-0.013420323371941793,-0.2651704226392411,0.3794083774726389,-0.05071096574063967,-0.01413441940766648,0.0960550940670646,-0.18381231204212256,4.074535714175205E-4,0.04976354697171756,0.06952284452906168,0.040624605282855636,-0.03594158447803829,0.008301342111858408,-0.07800662598069315,-0.07830537708735147,-0.4621087703530576,-0.392604097702579,0.06635970471859463,-0.2051762634117046,-0.1842707594816927,-0.3493140133466822,-0.2818811057300726,-0.03262508680568962,-0.17192607266833065,-0.08319115817840386,-0.2993737950890795,-0.42837295380485424,-0.37056879773009854,0.06743726590641927,0.30705189554643036,0.1295270600203022,-0.18456147726797154,0.15903592178014367,0.07616820186532477,-0.10048013750438317,0.08886538976485078,0.0033173413344194515,0.020646883800818586,0.0010614677796235384,-0.09399921660375166,0.01425605821008075,0.025344536962843122,-0.08280014001551983,-0.5828768197570535,-0.36200031924134846,0.21109653827368968,-0.13473813454904388,0.051265241902230085,0.14260112014109977,0.028802215708428034,-0.21624424941082127,0.5350537257541744,0.11725998545958811,-0.32053849374000676,-0.80721363782491,-0.2783715672443158,0.4861807051162556,0.15298395062609438,0.01700630129146031,-0.39377166629163163,-0.03821891256807887,-0.2910899227297874,-0.12939706103918905,-0.08075525906880011,0.011935815496774697,0.07939686833298931,-0.07392749891595772,0.00821908789589334,-0.13494185107540188,-0.14538347410751515,-0.16451787516412825,-0.2228862280720336,0.09543809419817204,-0.11819669030821081,-0.20654488432614215,0.3280232597770768,0.4539735222085284,0.38833180653324323,0.31775248400662764,0.162127578375687,-0.2655918206659757,-0.39077325879986863,-0.7776954214663409,-0.269476293250565,0.17146941781615838,0.092740478519653,-0.17733884648669945,-0.19165773006528525,-0.29618648454290725,-0.14214550797547804,0.08741100247394384,0.19729483068544965,0.04681023156981994,0.058266815597158114,-0.0775022704461937,-0.005704099627471346,-0.1630167515478781,-0.254358990079281,-0.3175034179107784,-0.28155729728723616,-0.23396608805587704,-0.2709289124292168,0.10598489701588465,0.3130081657114158,0.4695062392953553,0.4600641566728337,0.05374622523539412,-0.17404353117565058,-0.6580702223350029,-0.2783080493387328,0.06337590512217592,0.4722845666419017,0.18438607722753808,0.03183395031498026,0.03848324777367803,-0.04531264010709774,-0.07104980700518691,-0.22323690459028656,0.150928933520928,0.04751143731396169,0.05773102553770079,-0.013368881378324976,-0.029290067442131838,0.00519307122674223,-0.19358285548597812,-0.2955754386091642,-0.27495088245601546,-0.4163557417328072,-0.23229886829045696,-0.08233855029518632,0.05188764715544221,-0.03478397165189985,-0.3317204804262513,0.040189519313956354,-0.049830223114891735,0.4792218983717842,0.09275661188632296,0.11244667150349363,-0.16269152738197876,-0.16705365800194624,-0.09619087209827108,0.8919311865603912,0.1647840776606859,0.022684191251262788,-0.006299378653514126,-0.4139750025386993,-0.14522021273460697,-0.1009518166273431,-0.053102034896775216,-0.09313605809103886,-0.016922392059964896,-0.08059258980337417,-0.06149437275656092,-0.1229472022520083,-0.16151171010726006,-0.37955560156639534,-0.39587131286717525,0.19985088275120358,0.5535800847793779,0.19198376054653135,0.12683479830518574,-0.008554523653936748,0.5030648965079767,0.9383737293691288,0.20641261137120331,-0.054155449679014325,-0.37354518271161413,-0.01819951141164696,0.2504502930400905,0.43183158047275777,-0.277600563764022,-0.48042956396558073,-0.4821717469207799,-0.5729045242821211,-0.4450236700394608,-0.042972115851921844,0.009313679760985587,-0.04502403536890667,-0.028023002748653526,-0.046645093801803685,-0.09381534983717572,-0.006463393071241763,-0.03251458158162706,-0.07690879360771921,-0.0226783875253139,0.7745562431118344,0.6783354790531575,0.5317892020063412,0.08015535783728409,-0.18867967776876357,0.17578898912681584,0.530857716458847,0.1910343846435545,-0.07115623001533959,0.15388724301060025,0.13175538820307112,0.352420416337719,0.1273480315434347,-0.23366664569406467,-0.6047849415894394,-0.6731661990096156,-0.4267058141764556,0.1644349582424172,0.15792057581977362,0.10026597594144797,0.011247710433572668,-0.056351624553224566,-0.033738022844475336,0.0011027919714731544,0.06385494951216998,0.14359133730864052,0.46603035004717547,0.07630254547646209,0.4423307827922826,0.6359139991677133,0.3498712552910776,0.28199972300627674,-0.1258004042110516,0.3596634719056225,0.07589087942985245,-0.652657052260605,-0.36932798877530937,0.542468534777744,0.04253873562759977,0.33910842640527883,0.013479535280249005,-0.40170446066222,-0.7461498472713272,-0.5904941461205514,0.04471063892857852,0.34079261066338723,0.007409163290244216,0.06899279902960671,-0.07169819635974473,0.00985256860510004,0.029778256580231113,-0.09857694255453932,0.10656584671359026,0.18596132143289068,0.2899015683179716,0.02974378695120074,0.3075311374355574,0.06289530269262561,-0.07782006449406115,-0.05237482375626908,0.13268591791275106,0.4564651764617965,0.022432317708210994,-0.47690165960059966,-0.18829276881591017,0.45190184190295013,0.2670891051628153,0.17697526503114688,-0.2985543835122318,-0.22486741392877352,-0.35330536743985974,-0.39211425054862054,0.12495466116015103,0.04962968206696849,0.10340531529410604,0.0500637965396828,-0.013274648047187788,0.06097636375638543,-0.003913900816157059,-0.06193350669769154,0.0651390924615399,0.25609741841904987,0.38846354273898936,0.12572926914543553,0.27414252594851424,0.11357657048154816,0.31091967537704435,0.7266452141648225,0.6485191789726286,1.117043495162628,0.19409674187588077,0.3510281244773625,0.39320830740318424,0.33052081022862767,-0.2885788977772712,0.10504767072942801,-0.023237323810488035,-0.34534062368152674,-0.26565732400803255,-0.06636332911231875,-0.13128571669933037,-0.2211401852405232,0.06752002525919588,0.007604729457296897,0.0820547707510614,-0.008652596474795698,0.08171417286556343,-0.11266934708405277,0.07677494721142612,0.49538451270300116,0.4778797004418353,0.24691977729024794,0.052393887013945914,0.007997452313096145,-0.003923952102096073,0.4413245852433752,0.6179040196937653,0.47965734569743035,0.7014842430596565,0.5548322189213117,0.03291633365000951,-0.09643358659129565,-0.5002222381964112,-0.34861177658619175,0.23776727846668244,0.08314790101385057,-0.054141117130549,-0.023025386264650293,0.03203612774153631,0.03215574574203293,0.06070343942682517,0.10017919800831039,-0.017627686007425748,0.04133639719384656,-0.08938928037760782,-0.03765423274924253,0.12589426125496977,0.4182253326187609,0.3652853847459995,0.22706725393748592,-0.04115870221438018,-0.19528155170568612,-0.5768293982113627,-0.2317341666466282,-0.12374824408087057,-0.2862075371084126,-0.38367103931436575,-0.0914352391110061,-0.26918004502827075,-0.3175651086083246,-0.3354060516467026,-0.031543542973444035,0.5351345549096588,0.19293561717231744,-0.33521376641433126,0.001841456260451713,0.04790511537454593,0.1935516709430743,0.09436595273473965,0.16072444449881337,0.044463167113574856,-0.05386852978797473,0.027965069544580713,0.060494216506730765,0.09583735623723093,0.4182179704969816,0.14922905966119895,0.28809530581288245,-0.3922343194306924,-0.4280259725667026,-0.4231402513919542,-0.9423316013305884,-0.7784415305042985,-1.1335702623466024,-1.0809247730767075,-0.6784324360274832,-0.5472710787957132,-0.38875604753214604,-0.12785133770902116,-0.09595218488372483,0.24094295864826135,-0.375454594766157,-0.5278980010206094,-0.23017453874712004,-0.09469362411473815,0.11032661229993049,0.14688037917982744,0.09468871633788217,-0.016004367363589865,-0.0389992354902948,0.02177555673196465,0.06094759018024854,0.020122497560405034,0.1608759188332989,0.2949263677268991,0.13736444745425855,-0.2687464676572655,-0.7595961838456546,-0.7113644249378439,-0.9295863508655428,-0.9645718537243558,-0.7397704813175487,-0.5856299207193172,-0.48746404587454495,-0.2696659129973837,0.004997367737879529,0.14934260744306208,-0.008174865233586324,0.13535079163917546,0.01929342977108266,-0.12416704869886584,-0.018539977972780317,0.08439090279185252,0.18220637428975667,0.05947293864930405,0.020219179416007167,0.0021678174545921754,-0.04879441546611916,0.031967465439605436,-0.00695656546455485,0.0560615129978389,-0.08584852071666924,-0.15467133496474525,-0.4662367843810254,-0.32368685290928667,-0.19162963651066034,-0.25304441116234255,-0.5243169065277355,0.03481937305928714,-0.19882603907872387,-0.4359449243849411,0.09504612878663464,-0.374710515223959,-0.08523718233490568,0.04264502952674212,0.11087618087931907,-0.33737896956956637,-0.16420140098095357,-0.09588574671104769,0.030741611863923123,0.039167394665065795,0.12141728767837591,-0.04384302045558301,-0.053593989462815385,0.015462834682509172,-0.02700104561776666,-0.004488726807779897,0.0528411409004225,0.08854165648705085,-0.1468593588976009,-0.4203941278896379,-0.313382607081648,-0.1791947091105259,-0.0038786458205041416,-0.1121428783960103,-0.20756056405480167,-0.31970027677319407,-0.27624711523922824,-0.03712502371202704,0.18930891392627522,-0.3456955697901958,-0.22699882447374228,-0.35165069629420576,0.15178012366718338,0.07848931786827014,-0.0026503938475428285,0.046917078773858534,-0.0514060059997383,0.02421038736233676,0.015784078959816226,0.0310574266680696,0.0840060491714976,0.04076942259535002,0.009192404778292654,-0.06083954270952379,0.053058614152533844,0.03994496120921548,0.03942215637089593,0.0400007241957504,-0.027228709264358237,-0.14995966690461132,-0.11629227312213232,0.018664080090320362,0.14761606155832463,0.10646278561718192,0.14872853889940343,0.06563783339644937,-0.17306670555901732,-0.5335141385954907,-0.6799400461210005,-0.19977238200235617,0.00678614393014491,0.052120691279313916,0.12989233984944107,-0.04735454934879835,-0.0731590798688394,0.07804507523018478,-0.07483265282281637,0.025444433799726027,-0.054406142366272246,0.061842883473477495,0.012326939738804527,-0.009285406273427513,-0.03476026090031874,-0.09860604837849025,-0.027429522184446293,0.017666685420779597,0.06274549931985479,0.18529412961585137,0.06573200543791564,3.588747897683583E-4,-0.2328746754617388,0.20060573988614203,-0.15018266202065872,-0.1568590639065009,-0.18985955136359173,-0.18530618463193277,-0.4488199457784377,-0.18720924037772294,-0.11549074521338114,-0.008449300040662956,0.011169413357148956,0.0793121016388746,-0.03848463225578712,-0.054938325164494047,0.06124968687855175,-0.03886604364754705,-0.03228233191296529,0.05251894386344974,0.06803585314562544,-0.06052394215301292,0.03820960293688619,0.03624440008559308,0.08917702343124588,0.04783944138545868,0.16013104272281245,0.13362949313611813,0.13211288394081688,0.19988936420465528,0.3962204339702488,0.3458177892744524,0.27759981509860115,-0.07962999409045539,0.2425077185497559,0.02633664533750396,0.11630628244334025,0.05703640089026017,0.15561999621188993,0.08495218330763678,0.14828980304080894,0.11261409968624266,-0.040480274714861965,0.047644730983797914,-0.017877720702710678,-0.035200388931512394,0.02998145334389428,-0.05641066601150089,0.058086877507099816,-0.03033380660154239,-0.024715416399312212,0.014706213944793989,-0.02653518656285011,-0.05324311441104035,0.03121082329521367,0.011022237478509701,-0.009092129215796652,-0.05073475406484598,0.0053930665848949235,0.059763946038537345,0.09822162936106348,0.06259510193744161,0.099767165290442,-0.021582942678860923,-0.10472786603953657,-0.08971599100069896,0.031819735696267046,-0.002788956539262815,-0.051143864650191405,-0.06821137462231128,-0.09369319527731675,0.07285190445575783,0.053612400080825795,-0.03548923211133742,-0.02895773343641639,0.03748669416285948
